<?xml version="1.0"?>
<opencv_storage>
<miccal-cascades-30stages type_id="opencv-haar-classifier">
  <size>
    24 24</size>
  <stages>
    <_>
      <trees>
        <_>
          <_>
            <feature>
              <rects>
                <_>
                  0 3 24 18 -1.</_>
                <_>
                  6 3 12 18 2.</_></rects>
              <tilted>0</tilted></feature>
            <threshold>0.1428698003292084</threshold>
            <left_val>-0.5610411167144775</left_val>
            <right_val>0.8101562261581421</right_val></_></_>
        <_>
          <_>
            <feature>
              <rects>
                <_>
                  5 0 17 14 -1.</_>
                <_>
                  5 7 17 7 2.</_></rects>
              <tilted>0</tilted></feature>
            <threshold>0.0909987092018127</threshold>
            <left_val>-0.5129464864730835</left_val>
            <right_val>0.6889051795005798</right_val></_></_>
        <_>
          <_>
            <feature>
              <rects>
                <_>
                  4 18 13 6 -1.</_>
                <_>
                  4 21 13 3 2.</_></rects>
              <tilted>0</tilted></feature>
            <threshold>-1.8570919928606600e-004</threshold>
            <left_val>0.3056276142597199</left_val>
            <right_val>-0.6153401732444763</right_val></_></_>
        <_>
          <_>
            <feature>
              <rects>
                <_>
                  18 0 3 8 -1.</_>
                <_>
                  18 0 3 4 2.</_></rects>
              <tilted>1</tilted></feature>
            <threshold>-0.0384979397058487</threshold>
            <left_val>0.4482829868793488</left_val>
            <right_val>-0.1128617972135544</right_val></_></_>
        <_>
          <_>
            <feature>
              <rects>
                <_>
                  0 0 18 5 -1.</_>
                <_>
                  9 0 9 5 2.</_></rects>
              <tilted>0</tilted></feature>
            <threshold>0.0542650595307350</threshold>
            <left_val>-0.2617428898811340</left_val>
            <right_val>0.7667580842971802</right_val></_></_>
        <_>
          <_>
            <feature>
              <rects>
                <_>
                  12 8 2 6 -1.</_>
                <_>
                  12 8 1 6 2.</_></rects>
              <tilted>1</tilted></feature>
            <threshold>-4.9894199037225917e-005</threshold>
            <left_val>0.2733612060546875</left_val>
            <right_val>-0.4007875025272369</right_val></_></_>
        <_>
          <_>
            <feature>
              <rects>
                <_>
                  6 4 3 6 -1.</_>
                <_>
                  6 7 3 3 2.</_></rects>
              <tilted>0</tilted></feature>
            <threshold>2.9497570358216763e-004</threshold>
            <left_val>-0.4637047052383423</left_val>
            <right_val>0.4467264115810394</right_val></_></_>
        <_>
          <_>
            <feature>
              <rects>
                <_>
                  12 8 6 2 -1.</_>
                <_>
                  12 8 6 1 2.</_></rects>
              <tilted>1</tilted></feature>
            <threshold>-1.3576609489973634e-004</threshold>
            <left_val>0.3045243024826050</left_val>
            <right_val>-0.4813801944255829</right_val></_></_>
        <_>
          <_>
            <feature>
              <rects>
                <_>
                  0 15 5 8 -1.</_>
                <_>
                  0 19 5 4 2.</_></rects>
              <tilted>0</tilted></feature>
            <threshold>-1.5315919881686568e-003</threshold>
            <left_val>0.4136595129966736</left_val>
            <right_val>-0.4313445985317230</right_val></_></_>
        <_>
          <_>
            <feature>
              <rects>
                <_>
                  20 1 4 10 -1.</_>
                <_>
                  20 1 2 10 2.</_></rects>
              <tilted>0</tilted></feature>
            <threshold>0.0175569895654917</threshold>
            <left_val>-0.1850765049457550</left_val>
            <right_val>0.7489255070686340</right_val></_></_>
        <_>
          <_>
            <feature>
              <rects>
                <_>
                  7 4 4 4 -1.</_>
                <_>
                  6 5 4 2 2.</_></rects>
              <tilted>1</tilted></feature>
            <threshold>-3.4205109113827348e-004</threshold>
            <left_val>0.4559271037578583</left_val>
            <right_val>-0.4771108031272888</right_val></_></_>
        <_>
          <_>
            <feature>
              <rects>
                <_>
                  12 0 12 2 -1.</_>
                <_>
                  15 3 6 2 2.</_></rects>
              <tilted>1</tilted></feature>
            <threshold>0.0115184597671032</threshold>
            <left_val>-0.1651647984981537</left_val>
            <right_val>0.3503913879394531</right_val></_></_>
        <_>
          <_>
            <feature>
              <rects>
                <_>
                  0 1 16 10 -1.</_>
                <_>
                  4 1 8 10 2.</_></rects>
              <tilted>0</tilted></feature>
            <threshold>0.0313718505203724</threshold>
            <left_val>-0.3958094120025635</left_val>
            <right_val>0.5838360786437988</right_val></_></_>
        <_>
          <_>
            <feature>
              <rects>
                <_>
                  8 2 15 6 -1.</_>
                <_>
                  13 2 5 6 3.</_></rects>
              <tilted>0</tilted></feature>
            <threshold>1.2092499528080225e-003</threshold>
            <left_val>-0.4561232924461365</left_val>
            <right_val>0.3055312931537628</right_val></_></_>
        <_>
          <_>
            <feature>
              <rects>
                <_>
                  12 1 9 3 -1.</_>
                <_>
                  15 4 3 3 3.</_></rects>
              <tilted>1</tilted></feature>
            <threshold>-1.4962389832362533e-004</threshold>
            <left_val>0.5891283750534058</left_val>
            <right_val>-0.6184678077697754</right_val></_></_>
        <_>
          <_>
            <feature>
              <rects>
                <_>
                  12 1 3 9 -1.</_>
                <_>
                  9 4 3 3 3.</_></rects>
              <tilted>1</tilted></feature>
            <threshold>2.7220349875278771e-004</threshold>
            <left_val>-0.2716911137104034</left_val>
            <right_val>0.3646537065505981</right_val></_></_>
        <_>
          <_>
            <feature>
              <rects>
                <_>
                  1 2 15 6 -1.</_>
                <_>
                  6 2 5 6 3.</_></rects>
              <tilted>0</tilted></feature>
            <threshold>-7.4904768553096801e-005</threshold>
            <left_val>0.5765442252159119</left_val>
            <right_val>-0.5930265188217163</right_val></_></_>
        <_>
          <_>
            <feature>
              <rects>
                <_>
                  6 2 18 4 -1.</_>
                <_>
                  12 2 6 4 3.</_></rects>
              <tilted>0</tilted></feature>
            <threshold>-0.0208706092089415</threshold>
            <left_val>0.6094998717308044</left_val>
            <right_val>-0.2682147920131683</right_val></_></_></trees>
      <stage_threshold>-1.9248390197753906</stage_threshold>
      <parent>-1</parent>
      <next>-1</next></_>
    <_>
      <trees>
        <_>
          <_>
            <feature>
              <rects>
                <_>
                  0 5 24 18 -1.</_>
                <_>
                  6 5 12 18 2.</_></rects>
              <tilted>0</tilted></feature>
            <threshold>0.1454111039638519</threshold>
            <left_val>-0.5422341823577881</left_val>
            <right_val>0.6985427141189575</right_val></_></_>
        <_>
          <_>
            <feature>
              <rects>
                <_>
                  2 0 22 24 -1.</_>
                <_>
                  2 6 22 12 2.</_></rects>
              <tilted>0</tilted></feature>
            <threshold>0.1352898031473160</threshold>
            <left_val>-0.5478016138076782</left_val>
            <right_val>0.4688090085983276</right_val></_></_>
        <_>
          <_>
            <feature>
              <rects>
                <_>
                  1 18 18 6 -1.</_>
                <_>
                  1 21 18 3 2.</_></rects>
              <tilted>0</tilted></feature>
            <threshold>-3.6044258740730584e-004</threshold>
            <left_val>0.2219344973564148</left_val>
            <right_val>-0.5925070047378540</right_val></_></_>
        <_>
          <_>
            <feature>
              <rects>
                <_>
                  13 1 7 2 -1.</_>
                <_>
                  13 1 7 1 2.</_></rects>
              <tilted>1</tilted></feature>
            <threshold>-1.4284849748946726e-004</threshold>
            <left_val>0.2109640985727310</left_val>
            <right_val>-0.2426753938198090</right_val></_></_>
        <_>
          <_>
            <feature>
              <rects>
                <_>
                  1 0 16 5 -1.</_>
                <_>
                  9 0 8 5 2.</_></rects>
              <tilted>0</tilted></feature>
            <threshold>0.0298203900456429</threshold>
            <left_val>-0.2530406117439270</left_val>
            <right_val>0.4826175868511200</right_val></_></_>
        <_>
          <_>
            <feature>
              <rects>
                <_>
                  11 0 3 22 -1.</_>
                <_>
                  11 11 3 11 2.</_></rects>
              <tilted>0</tilted></feature>
            <threshold>6.0731298290193081e-003</threshold>
            <left_val>-0.4913881123065949</left_val>
            <right_val>0.2968833148479462</right_val></_></_>
        <_>
          <_>
            <feature>
              <rects>
                <_>
                  4 9 2 4 -1.</_>
                <_>
                  4 9 2 2 2.</_></rects>
              <tilted>1</tilted></feature>
            <threshold>9.9562646937556565e-005</threshold>
            <left_val>-0.4981229901313782</left_val>
            <right_val>0.3221692144870758</right_val></_></_>
        <_>
          <_>
            <feature>
              <rects>
                <_>
                  21 11 1 2 -1.</_>
                <_>
                  21 12 1 1 2.</_></rects>
              <tilted>0</tilted></feature>
            <threshold>2.1097430362715386e-005</threshold>
            <left_val>-0.4199290871620178</left_val>
            <right_val>0.1877537965774536</right_val></_></_>
        <_>
          <_>
            <feature>
              <rects>
                <_>
                  12 0 4 8 -1.</_>
                <_>
                  12 0 2 8 2.</_></rects>
              <tilted>1</tilted></feature>
            <threshold>-1.1996639659628272e-003</threshold>
            <left_val>0.3932974040508270</left_val>
            <right_val>-0.5986478924751282</right_val></_></_>
        <_>
          <_>
            <feature>
              <rects>
                <_>
                  6 2 18 3 -1.</_>
                <_>
                  12 2 6 3 3.</_></rects>
              <tilted>0</tilted></feature>
            <threshold>1.3811689568683505e-003</threshold>
            <left_val>-0.2687602937221527</left_val>
            <right_val>0.2359896004199982</right_val></_></_>
        <_>
          <_>
            <feature>
              <rects>
                <_>
                  0 2 18 3 -1.</_>
                <_>
                  6 2 6 3 3.</_></rects>
              <tilted>0</tilted></feature>
            <threshold>3.6465500015765429e-003</threshold>
            <left_val>-0.5074126720428467</left_val>
            <right_val>0.5834261178970337</right_val></_></_>
        <_>
          <_>
            <feature>
              <rects>
                <_>
                  13 2 10 4 -1.</_>
                <_>
                  13 2 5 4 2.</_></rects>
              <tilted>0</tilted></feature>
            <threshold>-3.6729390267282724e-003</threshold>
            <left_val>0.4698087871074677</left_val>
            <right_val>-0.5456976294517517</right_val></_></_>
        <_>
          <_>
            <feature>
              <rects>
                <_>
                  1 2 10 3 -1.</_>
                <_>
                  6 2 5 3 2.</_></rects>
              <tilted>0</tilted></feature>
            <threshold>-4.3878669384866953e-004</threshold>
            <left_val>0.5657234191894531</left_val>
            <right_val>-0.3860414028167725</right_val></_></_>
        <_>
          <_>
            <feature>
              <rects>
                <_>
                  0 2 24 4 -1.</_>
                <_>
                  6 2 12 4 2.</_></rects>
              <tilted>0</tilted></feature>
            <threshold>1.0694009688450024e-004</threshold>
            <left_val>-0.4841871857643127</left_val>
            <right_val>0.5552194714546204</right_val></_></_>
        <_>
          <_>
            <feature>
              <rects>
                <_>
                  6 7 9 6 -1.</_>
                <_>
                  6 10 9 3 2.</_></rects>
              <tilted>0</tilted></feature>
            <threshold>9.1294459707569331e-005</threshold>
            <left_val>-0.6163436174392700</left_val>
            <right_val>0.3276615142822266</right_val></_></_>
        <_>
          <_>
            <feature>
              <rects>
                <_>
                  10 7 12 6 -1.</_>
                <_>
                  10 10 12 3 2.</_></rects>
              <tilted>0</tilted></feature>
            <threshold>-3.5269290674477816e-004</threshold>
            <left_val>0.4600634872913361</left_val>
            <right_val>-0.5530158877372742</right_val></_></_>
        <_>
          <_>
            <feature>
              <rects>
                <_>
                  2 8 18 4 -1.</_>
                <_>
                  2 8 9 2 2.</_>
                <_>
                  11 10 9 2 2.</_></rects>
              <tilted>0</tilted></feature>
            <threshold>2.8946928796358407e-004</threshold>
            <left_val>-0.4369607865810394</left_val>
            <right_val>0.5911614894866943</right_val></_></_>
        <_>
          <_>
            <feature>
              <rects>
                <_>
                  2 7 20 8 -1.</_>
                <_>
                  12 7 10 4 2.</_>
                <_>
                  2 11 10 4 2.</_></rects>
              <tilted>0</tilted></feature>
            <threshold>7.5902987737208605e-004</threshold>
            <left_val>-0.6052479147911072</left_val>
            <right_val>0.4628781080245972</right_val></_></_>
        <_>
          <_>
            <feature>
              <rects>
                <_>
                  2 7 20 8 -1.</_>
                <_>
                  2 7 10 4 2.</_>
                <_>
                  12 11 10 4 2.</_></rects>
              <tilted>0</tilted></feature>
            <threshold>1.9861379405483603e-004</threshold>
            <left_val>-0.7043733000755310</left_val>
            <right_val>0.6198579072952271</right_val></_></_>
        <_>
          <_>
            <feature>
              <rects>
                <_>
                  2 7 20 8 -1.</_>
                <_>
                  12 7 10 4 2.</_>
                <_>
                  2 11 10 4 2.</_></rects>
              <tilted>0</tilted></feature>
            <threshold>1.3548799324780703e-004</threshold>
            <left_val>-0.8305314183235169</left_val>
            <right_val>0.7127885818481445</right_val></_></_>
        <_>
          <_>
            <feature>
              <rects>
                <_>
                  2 7 20 8 -1.</_>
                <_>
                  2 7 10 4 2.</_>
                <_>
                  12 11 10 4 2.</_></rects>
              <tilted>0</tilted></feature>
            <threshold>1.1840630031656474e-004</threshold>
            <left_val>-0.9134647846221924</left_val>
            <right_val>0.8195000290870667</right_val></_></_>
        <_>
          <_>
            <feature>
              <rects>
                <_>
                  2 7 20 8 -1.</_>
                <_>
                  12 7 10 4 2.</_>
                <_>
                  2 11 10 4 2.</_></rects>
              <tilted>0</tilted></feature>
            <threshold>7.3770532617345452e-004</threshold>
            <left_val>-0.9728916883468628</left_val>
            <right_val>0.9690572023391724</right_val></_></_>
        <_>
          <_>
            <feature>
              <rects>
                <_>
                  0 0 2 1 -1.</_>
                <_>
                  1 0 1 1 2.</_></rects>
              <tilted>0</tilted></feature>
            <threshold>0.</threshold>
            <left_val>0.</left_val>
            <right_val>-1.</right_val></_></_>
        <_>
          <_>
            <feature>
              <rects>
                <_>
                  2 7 20 8 -1.</_>
                <_>
                  12 7 10 4 2.</_>
                <_>
                  2 11 10 4 2.</_></rects>
              <tilted>0</tilted></feature>
            <threshold>-1.1840630031656474e-004</threshold>
            <left_val>0.9946457147598267</left_val>
            <right_val>-0.9428893923759460</right_val></_></_>
        <_>
          <_>
            <feature>
              <rects>
                <_>
                  2 7 20 8 -1.</_>
                <_>
                  2 7 10 4 2.</_>
                <_>
                  12 11 10 4 2.</_></rects>
              <tilted>0</tilted></feature>
            <threshold>-1.3548799324780703e-004</threshold>
            <left_val>0.9649683237075806</left_val>
            <right_val>-0.8158560991287231</right_val></_></_>
        <_>
          <_>
            <feature>
              <rects>
                <_>
                  2 7 20 8 -1.</_>
                <_>
                  12 7 10 4 2.</_>
                <_>
                  2 11 10 4 2.</_></rects>
              <tilted>0</tilted></feature>
            <threshold>-1.1840630031656474e-004</threshold>
            <left_val>0.9319664835929871</left_val>
            <right_val>-0.6274942159652710</right_val></_></_>
        <_>
          <_>
            <feature>
              <rects>
                <_>
                  2 7 20 8 -1.</_>
                <_>
                  2 7 10 4 2.</_>
                <_>
                  12 11 10 4 2.</_></rects>
              <tilted>0</tilted></feature>
            <threshold>-1.3548799324780703e-004</threshold>
            <left_val>0.8308851718902588</left_val>
            <right_val>-0.4608480930328369</right_val></_></_>
        <_>
          <_>
            <feature>
              <rects>
                <_>
                  22 0 2 1 -1.</_>
                <_>
                  22 0 1 1 2.</_></rects>
              <tilted>0</tilted></feature>
            <threshold>-1.4776080206502229e-005</threshold>
            <left_val>0.5312901735305786</left_val>
            <right_val>-0.2203256934881210</right_val></_></_>
        <_>
          <_>
            <feature>
              <rects>
                <_>
                  0 0 2 1 -1.</_>
                <_>
                  1 0 1 1 2.</_></rects>
              <tilted>0</tilted></feature>
            <threshold>1.4776080206502229e-005</threshold>
            <left_val>-0.4204770922660828</left_val>
            <right_val>0.7486438155174255</right_val></_></_>
        <_>
          <_>
            <feature>
              <rects>
                <_>
                  18 1 2 17 -1.</_>
                <_>
                  18 1 1 17 2.</_></rects>
              <tilted>1</tilted></feature>
            <threshold>-4.4745570630766451e-004</threshold>
            <left_val>0.3043884932994843</left_val>
            <right_val>-0.5554437041282654</right_val></_></_>
        <_>
          <_>
            <feature>
              <rects>
                <_>
                  4 6 5 12 -1.</_>
                <_>
                  4 12 5 6 2.</_></rects>
              <tilted>0</tilted></feature>
            <threshold>-1.0479730553925037e-003</threshold>
            <left_val>0.6547564268112183</left_val>
            <right_val>-0.4671949148178101</right_val></_></_>
        <_>
          <_>
            <feature>
              <rects>
                <_>
                  3 6 18 15 -1.</_>
                <_>
                  3 11 18 5 3.</_></rects>
              <tilted>0</tilted></feature>
            <threshold>3.9974341052584350e-004</threshold>
            <left_val>-0.5161768198013306</left_val>
            <right_val>0.4649305045604706</right_val></_></_>
        <_>
          <_>
            <feature>
              <rects>
                <_>
                  3 3 18 18 -1.</_>
                <_>
                  9 9 6 6 9.</_></rects>
              <tilted>0</tilted></feature>
            <threshold>-0.0338520593941212</threshold>
            <left_val>0.6999918222427368</left_val>
            <right_val>-0.4877158105373383</right_val></_></_>
        <_>
          <_>
            <feature>
              <rects>
                <_>
                  0 8 24 3 -1.</_>
                <_>
                  6 8 12 3 2.</_></rects>
              <tilted>0</tilted></feature>
            <threshold>8.4773567505180836e-004</threshold>
            <left_val>-0.4945316910743713</left_val>
            <right_val>0.4350383877754211</right_val></_></_>
        <_>
          <_>
            <feature>
              <rects>
                <_>
                  8 2 8 2 -1.</_>
                <_>
                  8 2 8 1 2.</_></rects>
              <tilted>1</tilted></feature>
            <threshold>-4.7201199777191505e-005</threshold>
            <left_val>0.3780133128166199</left_val>
            <right_val>-0.5579131841659546</right_val></_></_>
        <_>
          <_>
            <feature>
              <rects>
                <_>
                  15 0 8 9 -1.</_>
                <_>
                  17 2 4 9 2.</_></rects>
              <tilted>1</tilted></feature>
            <threshold>-1.3107620179653168e-004</threshold>
            <left_val>0.2885478138923645</left_val>
            <right_val>-0.2350569069385529</right_val></_></_>
        <_>
          <_>
            <feature>
              <rects>
                <_>
                  7 6 6 2 -1.</_>
                <_>
                  10 6 3 2 2.</_></rects>
              <tilted>0</tilted></feature>
            <threshold>4.6393778757192194e-004</threshold>
            <left_val>-0.3610677123069763</left_val>
            <right_val>0.4702867865562439</right_val></_></_>
        <_>
          <_>
            <feature>
              <rects>
                <_>
                  1 22 23 2 -1.</_>
                <_>
                  1 23 23 1 2.</_></rects>
              <tilted>0</tilted></feature>
            <threshold>-2.0918709924444556e-004</threshold>
            <left_val>0.3064101934432983</left_val>
            <right_val>-0.4657388031482697</right_val></_></_>
        <_>
          <_>
            <feature>
              <rects>
                <_>
                  4 9 4 4 -1.</_>
                <_>
                  4 9 4 2 2.</_></rects>
              <tilted>1</tilted></feature>
            <threshold>-1.1573230149224401e-003</threshold>
            <left_val>0.4710207879543304</left_val>
            <right_val>-0.3040918111801148</right_val></_></_>
        <_>
          <_>
            <feature>
              <rects>
                <_>
                  5 9 14 3 -1.</_>
                <_>
                  5 10 14 1 3.</_></rects>
              <tilted>0</tilted></feature>
            <threshold>7.2673289105296135e-003</threshold>
            <left_val>0.1577387005090714</left_val>
            <right_val>-0.8973407745361328</right_val></_></_>
        <_>
          <_>
            <feature>
              <rects>
                <_>
                  5 12 2 2 -1.</_>
                <_>
                  5 12 1 1 2.</_>
                <_>
                  6 13 1 1 2.</_></rects>
              <tilted>0</tilted></feature>
            <threshold>-9.1411347966641188e-004</threshold>
            <left_val>-0.8573920726776123</left_val>
            <right_val>0.2792573869228363</right_val></_></_>
        <_>
          <_>
            <feature>
              <rects>
                <_>
                  11 9 5 3 -1.</_>
                <_>
                  11 10 5 1 3.</_></rects>
              <tilted>0</tilted></feature>
            <threshold>-5.1219561137259007e-003</threshold>
            <left_val>-0.8149014115333557</left_val>
            <right_val>0.0585729703307152</right_val></_></_>
        <_>
          <_>
            <feature>
              <rects>
                <_>
                  4 15 2 2 -1.</_>
                <_>
                  4 15 1 1 2.</_>
                <_>
                  5 16 1 1 2.</_></rects>
              <tilted>0</tilted></feature>
            <threshold>-8.7528012227267027e-004</threshold>
            <left_val>-0.7588099241256714</left_val>
            <right_val>0.1755051016807556</right_val></_></_>
        <_>
          <_>
            <feature>
              <rects>
                <_>
                  13 5 2 2 -1.</_>
                <_>
                  14 5 1 1 2.</_>
                <_>
                  13 6 1 1 2.</_></rects>
              <tilted>0</tilted></feature>
            <threshold>-7.7534560114145279e-004</threshold>
            <left_val>-0.6272342205047607</left_val>
            <right_val>0.0832614898681641</right_val></_></_>
        <_>
          <_>
            <feature>
              <rects>
                <_>
                  10 10 4 1 -1.</_>
                <_>
                  12 10 2 1 2.</_></rects>
              <tilted>0</tilted></feature>
            <threshold>-2.3590489945490845e-005</threshold>
            <left_val>0.3989627957344055</left_val>
            <right_val>-0.3723638951778412</right_val></_></_></trees>
      <stage_threshold>-1.6299710273742676</stage_threshold>
      <parent>0</parent>
      <next>-1</next></_>
    <_>
      <trees>
        <_>
          <_>
            <feature>
              <rects>
                <_>
                  0 5 24 17 -1.</_>
                <_>
                  6 5 12 17 2.</_></rects>
              <tilted>0</tilted></feature>
            <threshold>0.1664558053016663</threshold>
            <left_val>-0.4795122146606445</left_val>
            <right_val>0.6552218198776245</right_val></_></_>
        <_>
          <_>
            <feature>
              <rects>
                <_>
                  0 0 24 24 -1.</_>
                <_>
                  0 6 24 12 2.</_></rects>
              <tilted>0</tilted></feature>
            <threshold>0.0265290495008230</threshold>
            <left_val>-0.7794346809387207</left_val>
            <right_val>0.3353633880615234</right_val></_></_>
        <_>
          <_>
            <feature>
              <rects>
                <_>
                  6 8 11 16 -1.</_>
                <_>
                  6 12 11 8 2.</_></rects>
              <tilted>0</tilted></feature>
            <threshold>1.9575180485844612e-003</threshold>
            <left_val>-0.7274687886238098</left_val>
            <right_val>0.2214819043874741</right_val></_></_>
        <_>
          <_>
            <feature>
              <rects>
                <_>
                  5 0 18 15 -1.</_>
                <_>
                  11 5 6 5 9.</_></rects>
              <tilted>0</tilted></feature>
            <threshold>3.0141740571707487e-003</threshold>
            <left_val>-0.6622251272201538</left_val>
            <right_val>0.3144550919532776</right_val></_></_>
        <_>
          <_>
            <feature>
              <rects>
                <_>
                  12 3 8 1 -1.</_>
                <_>
                  14 5 4 1 2.</_></rects>
              <tilted>1</tilted></feature>
            <threshold>-4.6578669571317732e-004</threshold>
            <left_val>0.5603566169738770</left_val>
            <right_val>-0.7474400997161865</right_val></_></_>
        <_>
          <_>
            <feature>
              <rects>
                <_>
                  12 3 1 8 -1.</_>
                <_>
                  10 5 1 4 2.</_></rects>
              <tilted>1</tilted></feature>
            <threshold>1.6660449909977615e-004</threshold>
            <left_val>-0.4245006144046783</left_val>
            <right_val>0.4793229997158051</right_val></_></_>
        <_>
          <_>
            <feature>
              <rects>
                <_>
                  12 3 8 1 -1.</_>
                <_>
                  14 5 4 1 2.</_></rects>
              <tilted>1</tilted></feature>
            <threshold>3.4272870834683999e-005</threshold>
            <left_val>-0.6379708051681519</left_val>
            <right_val>0.6073908805847168</right_val></_></_>
        <_>
          <_>
            <feature>
              <rects>
                <_>
                  12 3 8 1 -1.</_>
                <_>
                  14 5 4 1 2.</_></rects>
              <tilted>1</tilted></feature>
            <threshold>-4.2721501813502982e-005</threshold>
            <left_val>0.6361172795295715</left_val>
            <right_val>-0.7683898806571960</right_val></_></_>
        <_>
          <_>
            <feature>
              <rects>
                <_>
                  12 3 8 1 -1.</_>
                <_>
                  14 5 4 1 2.</_></rects>
              <tilted>1</tilted></feature>
            <threshold>3.4272870834683999e-005</threshold>
            <left_val>-0.5769950747489929</left_val>
            <right_val>0.6992248892784119</right_val></_></_>
        <_>
          <_>
            <feature>
              <rects>
                <_>
                  12 3 8 1 -1.</_>
                <_>
                  14 5 4 1 2.</_></rects>
              <tilted>1</tilted></feature>
            <threshold>-4.2721501813502982e-005</threshold>
            <left_val>0.5906090140342712</left_val>
            <right_val>-0.7116801738739014</right_val></_></_>
        <_>
          <_>
            <feature>
              <rects>
                <_>
                  12 2 9 2 -1.</_>
                <_>
                  15 5 3 2 3.</_></rects>
              <tilted>1</tilted></feature>
            <threshold>1.8936949345516041e-005</threshold>
            <left_val>-0.5822998881340027</left_val>
            <right_val>0.6524425148963928</right_val></_></_>
        <_>
          <_>
            <feature>
              <rects>
                <_>
                  12 3 8 1 -1.</_>
                <_>
                  14 5 4 1 2.</_></rects>
              <tilted>1</tilted></feature>
            <threshold>-4.2721501813502982e-005</threshold>
            <left_val>0.3880741000175476</left_val>
            <right_val>-0.6419774889945984</right_val></_></_>
        <_>
          <_>
            <feature>
              <rects>
                <_>
                  6 7 9 4 -1.</_>
                <_>
                  6 9 9 2 2.</_></rects>
              <tilted>0</tilted></feature>
            <threshold>2.6115680157090537e-005</threshold>
            <left_val>-0.5621035099029541</left_val>
            <right_val>0.6631103157997131</right_val></_></_>
        <_>
          <_>
            <feature>
              <rects>
                <_>
                  12 7 8 4 -1.</_>
                <_>
                  16 7 4 2 2.</_>
                <_>
                  12 9 4 2 2.</_></rects>
              <tilted>0</tilted></feature>
            <threshold>-3.5742461477639154e-005</threshold>
            <left_val>0.4734343886375427</left_val>
            <right_val>-0.6804119944572449</right_val></_></_>
        <_>
          <_>
            <feature>
              <rects>
                <_>
                  12 3 8 1 -1.</_>
                <_>
                  14 5 4 1 2.</_></rects>
              <tilted>1</tilted></feature>
            <threshold>3.4272870834683999e-005</threshold>
            <left_val>-0.5028753280639648</left_val>
            <right_val>0.6836059093475342</right_val></_></_>
        <_>
          <_>
            <feature>
              <rects>
                <_>
                  12 3 8 1 -1.</_>
                <_>
                  14 5 4 1 2.</_></rects>
              <tilted>1</tilted></feature>
            <threshold>-4.2721501813502982e-005</threshold>
            <left_val>0.5099142193794251</left_val>
            <right_val>-0.6552975177764893</right_val></_></_>
        <_>
          <_>
            <feature>
              <rects>
                <_>
                  0 10 9 2 -1.</_>
                <_>
                  3 10 3 2 3.</_></rects>
              <tilted>0</tilted></feature>
            <threshold>3.8962738472037017e-005</threshold>
            <left_val>-0.5472608804702759</left_val>
            <right_val>0.6149445772171021</right_val></_></_>
        <_>
          <_>
            <feature>
              <rects>
                <_>
                  12 3 1 9 -1.</_>
                <_>
                  9 6 1 3 3.</_></rects>
              <tilted>1</tilted></feature>
            <threshold>-3.6420900869416073e-005</threshold>
            <left_val>0.3478317856788635</left_val>
            <right_val>-0.5534436702728272</right_val></_></_>
        <_>
          <_>
            <feature>
              <rects>
                <_>
                  12 3 1 9 -1.</_>
                <_>
                  9 6 1 3 3.</_></rects>
              <tilted>1</tilted></feature>
            <threshold>3.0316319680423476e-005</threshold>
            <left_val>-0.5640603899955750</left_val>
            <right_val>0.7053142189979553</right_val></_></_>
        <_>
          <_>
            <feature>
              <rects>
                <_>
                  12 3 1 9 -1.</_>
                <_>
                  9 6 1 3 3.</_></rects>
              <tilted>1</tilted></feature>
            <threshold>-3.6420900869416073e-005</threshold>
            <left_val>0.5650035738945007</left_val>
            <right_val>-0.6455199122428894</right_val></_></_>
        <_>
          <_>
            <feature>
              <rects>
                <_>
                  2 5 17 6 -1.</_>
                <_>
                  2 7 17 2 3.</_></rects>
              <tilted>0</tilted></feature>
            <threshold>7.0977490395307541e-005</threshold>
            <left_val>-0.5808703899383545</left_val>
            <right_val>0.6531515717506409</right_val></_></_>
        <_>
          <_>
            <feature>
              <rects>
                <_>
                  18 10 4 3 -1.</_>
                <_>
                  19 10 2 3 2.</_></rects>
              <tilted>0</tilted></feature>
            <threshold>-2.7323210815666243e-005</threshold>
            <left_val>0.3881283104419708</left_val>
            <right_val>-0.6035190820693970</right_val></_></_>
        <_>
          <_>
            <feature>
              <rects>
                <_>
                  0 10 24 2 -1.</_>
                <_>
                  6 10 12 2 2.</_></rects>
              <tilted>0</tilted></feature>
            <threshold>6.1505701160058379e-004</threshold>
            <left_val>-0.6379402875900269</left_val>
            <right_val>0.4732533991336823</right_val></_></_>
        <_>
          <_>
            <feature>
              <rects>
                <_>
                  18 10 4 3 -1.</_>
                <_>
                  19 10 2 3 2.</_></rects>
              <tilted>0</tilted></feature>
            <threshold>5.4439380619442090e-005</threshold>
            <left_val>-0.6782320737838745</left_val>
            <right_val>0.6141059994697571</right_val></_></_>
        <_>
          <_>
            <feature>
              <rects>
                <_>
                  2 10 4 3 -1.</_>
                <_>
                  3 10 2 3 2.</_></rects>
              <tilted>0</tilted></feature>
            <threshold>-2.6115680157090537e-005</threshold>
            <left_val>0.6526880264282227</left_val>
            <right_val>-0.8127961158752441</right_val></_></_>
        <_>
          <_>
            <feature>
              <rects>
                <_>
                  18 11 4 2 -1.</_>
                <_>
                  19 11 2 2 2.</_></rects>
              <tilted>0</tilted></feature>
            <threshold>-2.0781060811714269e-005</threshold>
            <left_val>0.4108845889568329</left_val>
            <right_val>-0.4777948856353760</right_val></_></_>
        <_>
          <_>
            <feature>
              <rects>
                <_>
                  2 11 4 2 -1.</_>
                <_>
                  3 11 2 2 2.</_></rects>
              <tilted>0</tilted></feature>
            <threshold>3.1118361221160740e-005</threshold>
            <left_val>-0.4522288143634796</left_val>
            <right_val>0.7177547216415405</right_val></_></_>
        <_>
          <_>
            <feature>
              <rects>
                <_>
                  11 5 4 9 -1.</_>
                <_>
                  11 8 4 3 3.</_></rects>
              <tilted>0</tilted></feature>
            <threshold>-6.2425358919426799e-004</threshold>
            <left_val>0.4806075096130371</left_val>
            <right_val>-0.5988742709159851</right_val></_></_>
        <_>
          <_>
            <feature>
              <rects>
                <_>
                  9 7 6 2 -1.</_>
                <_>
                  9 8 6 1 2.</_></rects>
              <tilted>0</tilted></feature>
            <threshold>1.1777960025938228e-004</threshold>
            <left_val>-0.5161706209182739</left_val>
            <right_val>0.5652043819427490</right_val></_></_>
        <_>
          <_>
            <feature>
              <rects>
                <_>
                  14 7 8 1 -1.</_>
                <_>
                  14 7 4 1 2.</_></rects>
              <tilted>0</tilted></feature>
            <threshold>-2.0767620299011469e-005</threshold>
            <left_val>0.3252750039100647</left_val>
            <right_val>-0.5135940909385681</right_val></_></_>
        <_>
          <_>
            <feature>
              <rects>
                <_>
                  0 4 24 3 -1.</_>
                <_>
                  8 5 8 1 9.</_></rects>
              <tilted>0</tilted></feature>
            <threshold>9.3499329523183405e-005</threshold>
            <left_val>-0.6024519205093384</left_val>
            <right_val>0.5522937178611755</right_val></_></_>
        <_>
          <_>
            <feature>
              <rects>
                <_>
                  12 3 1 8 -1.</_>
                <_>
                  10 5 1 4 2.</_></rects>
              <tilted>1</tilted></feature>
            <threshold>-5.8719480875879526e-005</threshold>
            <left_val>0.3020255863666534</left_val>
            <right_val>-0.5294141769409180</right_val></_></_>
        <_>
          <_>
            <feature>
              <rects>
                <_>
                  11 1 3 8 -1.</_>
                <_>
                  9 3 3 4 2.</_></rects>
              <tilted>1</tilted></feature>
            <threshold>2.0055640561622567e-005</threshold>
            <left_val>-0.5370553135871887</left_val>
            <right_val>0.6909080743789673</right_val></_></_>
        <_>
          <_>
            <feature>
              <rects>
                <_>
                  17 16 3 8 -1.</_>
                <_>
                  17 20 3 4 2.</_></rects>
              <tilted>0</tilted></feature>
            <threshold>-1.0472750000189990e-004</threshold>
            <left_val>0.3031856119632721</left_val>
            <right_val>-0.6097499132156372</right_val></_></_>
        <_>
          <_>
            <feature>
              <rects>
                <_>
                  1 16 22 6 -1.</_>
                <_>
                  1 16 11 3 2.</_>
                <_>
                  12 19 11 3 2.</_></rects>
              <tilted>0</tilted></feature>
            <threshold>7.8159902477636933e-004</threshold>
            <left_val>-0.5394152998924255</left_val>
            <right_val>0.6804447174072266</right_val></_></_>
        <_>
          <_>
            <feature>
              <rects>
                <_>
                  13 14 10 2 -1.</_>
                <_>
                  13 14 5 2 2.</_></rects>
              <tilted>0</tilted></feature>
            <threshold>2.2258270473685116e-004</threshold>
            <left_val>-0.6264300942420960</left_val>
            <right_val>0.2504484951496124</right_val></_></_>
        <_>
          <_>
            <feature>
              <rects>
                <_>
                  0 14 10 2 -1.</_>
                <_>
                  5 14 5 2 2.</_></rects>
              <tilted>0</tilted></feature>
            <threshold>7.7836372656747699e-004</threshold>
            <left_val>-0.7938445806503296</left_val>
            <right_val>0.5297837257385254</right_val></_></_>
        <_>
          <_>
            <feature>
              <rects>
                <_>
                  2 11 21 2 -1.</_>
                <_>
                  9 11 7 2 3.</_></rects>
              <tilted>0</tilted></feature>
            <threshold>-2.3790220730006695e-003</threshold>
            <left_val>0.7106298208236694</left_val>
            <right_val>-0.8070436716079712</right_val></_></_>
        <_>
          <_>
            <feature>
              <rects>
                <_>
                  3 11 18 1 -1.</_>
                <_>
                  9 11 6 1 3.</_></rects>
              <tilted>0</tilted></feature>
            <threshold>2.0107299496885389e-004</threshold>
            <left_val>-0.6541100144386292</left_val>
            <right_val>0.7077447772026062</right_val></_></_>
        <_>
          <_>
            <feature>
              <rects>
                <_>
                  3 15 21 9 -1.</_>
                <_>
                  10 15 7 9 3.</_></rects>
              <tilted>0</tilted></feature>
            <threshold>-4.2034392245113850e-003</threshold>
            <left_val>0.6517077088356018</left_val>
            <right_val>-0.7261055111885071</right_val></_></_>
        <_>
          <_>
            <feature>
              <rects>
                <_>
                  0 15 24 7 -1.</_>
                <_>
                  6 15 12 7 2.</_></rects>
              <tilted>0</tilted></feature>
            <threshold>1.2266440317034721e-003</threshold>
            <left_val>-0.7144104242324829</left_val>
            <right_val>0.6299105286598206</right_val></_></_>
        <_>
          <_>
            <feature>
              <rects>
                <_>
                  3 15 21 9 -1.</_>
                <_>
                  10 15 7 9 3.</_></rects>
              <tilted>0</tilted></feature>
            <threshold>7.4157072231173515e-004</threshold>
            <left_val>-0.7218005061149597</left_val>
            <right_val>0.4000071883201599</right_val></_></_>
        <_>
          <_>
            <feature>
              <rects>
                <_>
                  2 13 20 10 -1.</_>
                <_>
                  7 13 10 10 2.</_></rects>
              <tilted>0</tilted></feature>
            <threshold>-1.7355379532091320e-004</threshold>
            <left_val>0.9342945218086243</left_val>
            <right_val>-0.8503739833831787</right_val></_></_>
        <_>
          <_>
            <feature>
              <rects>
                <_>
                  10 2 4 18 -1.</_>
                <_>
                  10 11 4 9 2.</_></rects>
              <tilted>0</tilted></feature>
            <threshold>4.7614850336685777e-004</threshold>
            <left_val>-0.6659576296806335</left_val>
            <right_val>0.7060458064079285</right_val></_></_>
        <_>
          <_>
            <feature>
              <rects>
                <_>
                  3 4 11 14 -1.</_>
                <_>
                  3 11 11 7 2.</_></rects>
              <tilted>0</tilted></feature>
            <threshold>-2.1938209829386324e-004</threshold>
            <left_val>0.8343089222908020</left_val>
            <right_val>-0.8157597184181213</right_val></_></_>
        <_>
          <_>
            <feature>
              <rects>
                <_>
                  21 2 3 14 -1.</_>
                <_>
                  21 2 3 7 2.</_></rects>
              <tilted>1</tilted></feature>
            <threshold>-3.4735791268758476e-004</threshold>
            <left_val>0.5489897727966309</left_val>
            <right_val>-0.6705350875854492</right_val></_></_>
        <_>
          <_>
            <feature>
              <rects>
                <_>
                  1 6 22 2 -1.</_>
                <_>
                  12 6 11 2 2.</_></rects>
              <tilted>0</tilted></feature>
            <threshold>3.6791400052607059e-003</threshold>
            <left_val>-0.5231360197067261</left_val>
            <right_val>0.7403317093849182</right_val></_></_>
        <_>
          <_>
            <feature>
              <rects>
                <_>
                  16 5 1 2 -1.</_>
                <_>
                  16 5 1 1 2.</_></rects>
              <tilted>1</tilted></feature>
            <threshold>6.8869572714902461e-005</threshold>
            <left_val>-0.5587128996849060</left_val>
            <right_val>0.3751612901687622</right_val></_></_>
        <_>
          <_>
            <feature>
              <rects>
                <_>
                  9 13 2 6 -1.</_>
                <_>
                  9 15 2 2 3.</_></rects>
              <tilted>0</tilted></feature>
            <threshold>-3.1999879865907133e-005</threshold>
            <left_val>0.6904795765876770</left_val>
            <right_val>-0.7335392236709595</right_val></_></_>
        <_>
          <_>
            <feature>
              <rects>
                <_>
                  13 13 2 6 -1.</_>
                <_>
                  13 15 2 2 3.</_></rects>
              <tilted>0</tilted></feature>
            <threshold>-3.4147931728512049e-005</threshold>
            <left_val>0.4765197038650513</left_val>
            <right_val>-0.3643243908882141</right_val></_></_>
        <_>
          <_>
            <feature>
              <rects>
                <_>
                  8 12 8 8 -1.</_>
                <_>
                  8 14 8 4 2.</_></rects>
              <tilted>0</tilted></feature>
            <threshold>2.2345939942169935e-004</threshold>
            <left_val>-0.5256111025810242</left_val>
            <right_val>0.6557418107986450</right_val></_></_>
        <_>
          <_>
            <feature>
              <rects>
                <_>
                  6 5 12 9 -1.</_>
                <_>
                  6 8 12 3 3.</_></rects>
              <tilted>0</tilted></feature>
            <threshold>8.3136057946830988e-004</threshold>
            <left_val>-0.6901137828826904</left_val>
            <right_val>0.5324922800064087</right_val></_></_>
        <_>
          <_>
            <feature>
              <rects>
                <_>
                  7 6 6 8 -1.</_>
                <_>
                  7 8 6 4 2.</_></rects>
              <tilted>0</tilted></feature>
            <threshold>-1.7240899614989758e-004</threshold>
            <left_val>0.5979824066162109</left_val>
            <right_val>-0.7774648070335388</right_val></_></_>
        <_>
          <_>
            <feature>
              <rects>
                <_>
                  11 6 6 8 -1.</_>
                <_>
                  11 8 6 4 2.</_></rects>
              <tilted>0</tilted></feature>
            <threshold>3.0438059184234589e-005</threshold>
            <left_val>-0.4324283003807068</left_val>
            <right_val>0.4368996918201447</right_val></_></_>
        <_>
          <_>
            <feature>
              <rects>
                <_>
                  4 7 12 2 -1.</_>
                <_>
                  4 7 6 1 2.</_>
                <_>
                  10 8 6 1 2.</_></rects>
              <tilted>0</tilted></feature>
            <threshold>-4.6949939132900909e-005</threshold>
            <left_val>0.6312854290008545</left_val>
            <right_val>-0.6950023174285889</right_val></_></_>
        <_>
          <_>
            <feature>
              <rects>
                <_>
                  7 6 16 2 -1.</_>
                <_>
                  7 6 8 2 2.</_></rects>
              <tilted>0</tilted></feature>
            <threshold>2.0226000342518091e-003</threshold>
            <left_val>-0.3984302878379822</left_val>
            <right_val>0.4738759100437164</right_val></_></_>
        <_>
          <_>
            <feature>
              <rects>
                <_>
                  11 4 10 1 -1.</_>
                <_>
                  11 4 5 1 2.</_></rects>
              <tilted>1</tilted></feature>
            <threshold>-4.6257810026872903e-005</threshold>
            <left_val>0.5910022258758545</left_val>
            <right_val>-0.6683496832847595</right_val></_></_>
        <_>
          <_>
            <feature>
              <rects>
                <_>
                  17 0 1 4 -1.</_>
                <_>
                  17 0 1 2 2.</_></rects>
              <tilted>1</tilted></feature>
            <threshold>-1.4565240126103163e-003</threshold>
            <left_val>0.4644649028778076</left_val>
            <right_val>-0.3808008134365082</right_val></_></_>
        <_>
          <_>
            <feature>
              <rects>
                <_>
                  0 0 20 1 -1.</_>
                <_>
                  10 0 10 1 2.</_></rects>
              <tilted>0</tilted></feature>
            <threshold>1.4963309513404965e-003</threshold>
            <left_val>-0.4470415115356445</left_val>
            <right_val>0.5262718796730042</right_val></_></_>
        <_>
          <_>
            <feature>
              <rects>
                <_>
                  12 20 9 2 -1.</_>
                <_>
                  12 21 9 1 2.</_></rects>
              <tilted>0</tilted></feature>
            <threshold>-1.5609270485583693e-004</threshold>
            <left_val>0.2073062956333160</left_val>
            <right_val>-0.4517115056514740</right_val></_></_>
        <_>
          <_>
            <feature>
              <rects>
                <_>
                  6 1 6 3 -1.</_>
                <_>
                  5 2 6 1 3.</_></rects>
              <tilted>1</tilted></feature>
            <threshold>2.1176840527914464e-004</threshold>
            <left_val>-0.4072592854499817</left_val>
            <right_val>0.5575749278068543</right_val></_></_>
        <_>
          <_>
            <feature>
              <rects>
                <_>
                  20 3 2 1 -1.</_>
                <_>
                  20 3 1 1 2.</_></rects>
              <tilted>1</tilted></feature>
            <threshold>-1.0849440150195733e-004</threshold>
            <left_val>0.2681973874568939</left_val>
            <right_val>-0.4220466017723084</right_val></_></_>
        <_>
          <_>
            <feature>
              <rects>
                <_>
                  7 1 4 4 -1.</_>
                <_>
                  6 2 4 2 2.</_></rects>
              <tilted>1</tilted></feature>
            <threshold>-5.2601238712668419e-004</threshold>
            <left_val>0.5934208035469055</left_val>
            <right_val>-0.4263420104980469</right_val></_></_>
        <_>
          <_>
            <feature>
              <rects>
                <_>
                  9 1 8 16 -1.</_>
                <_>
                  9 1 4 16 2.</_></rects>
              <tilted>0</tilted></feature>
            <threshold>0.0364136509597301</threshold>
            <left_val>-0.1170924976468086</left_val>
            <right_val>0.3997952044010162</right_val></_></_>
        <_>
          <_>
            <feature>
              <rects>
                <_>
                  0 1 4 17 -1.</_>
                <_>
                  1 1 2 17 2.</_></rects>
              <tilted>0</tilted></feature>
            <threshold>6.8103062221780419e-004</threshold>
            <left_val>-0.4546679854393005</left_val>
            <right_val>0.4736210107803345</right_val></_></_>
        <_>
          <_>
            <feature>
              <rects>
                <_>
                  14 12 3 7 -1.</_>
                <_>
                  15 13 1 7 3.</_></rects>
              <tilted>1</tilted></feature>
            <threshold>-6.9035442720633000e-005</threshold>
            <left_val>0.3110660016536713</left_val>
            <right_val>-0.4398118853569031</right_val></_></_>
        <_>
          <_>
            <feature>
              <rects>
                <_>
                  0 2 2 9 -1.</_>
                <_>
                  0 5 2 3 3.</_></rects>
              <tilted>0</tilted></feature>
            <threshold>4.4502070522867143e-004</threshold>
            <left_val>-0.4570057094097138</left_val>
            <right_val>0.5562977194786072</right_val></_></_>
        <_>
          <_>
            <feature>
              <rects>
                <_>
                  17 20 2 2 -1.</_>
                <_>
                  17 21 2 1 2.</_></rects>
              <tilted>0</tilted></feature>
            <threshold>7.1466696681454778e-005</threshold>
            <left_val>-0.4403415024280548</left_val>
            <right_val>0.2986997067928314</right_val></_></_>
        <_>
          <_>
            <feature>
              <rects>
                <_>
                  5 22 9 2 -1.</_>
                <_>
                  5 23 9 1 2.</_></rects>
              <tilted>0</tilted></feature>
            <threshold>-7.3732931923586875e-005</threshold>
            <left_val>0.6165177822113037</left_val>
            <right_val>-0.6505540013313294</right_val></_></_>
        <_>
          <_>
            <feature>
              <rects>
                <_>
                  11 20 9 4 -1.</_>
                <_>
                  11 21 9 2 2.</_></rects>
              <tilted>0</tilted></feature>
            <threshold>-2.9677990823984146e-005</threshold>
            <left_val>0.3672080039978027</left_val>
            <right_val>-0.2928034961223602</right_val></_></_>
        <_>
          <_>
            <feature>
              <rects>
                <_>
                  4 22 16 2 -1.</_>
                <_>
                  4 22 8 1 2.</_>
                <_>
                  12 23 8 1 2.</_></rects>
              <tilted>0</tilted></feature>
            <threshold>-2.7239810151513666e-005</threshold>
            <left_val>0.5489553213119507</left_val>
            <right_val>-0.4266414046287537</right_val></_></_>
        <_>
          <_>
            <feature>
              <rects>
                <_>
                  10 11 6 4 -1.</_>
                <_>
                  13 11 3 2 2.</_>
                <_>
                  10 13 3 2 2.</_></rects>
              <tilted>0</tilted></feature>
            <threshold>-2.7747379135689698e-005</threshold>
            <left_val>0.2691021859645844</left_val>
            <right_val>-0.2257685959339142</right_val></_></_>
        <_>
          <_>
            <feature>
              <rects>
                <_>
                  11 13 8 3 -1.</_>
                <_>
                  10 14 8 1 3.</_></rects>
              <tilted>1</tilted></feature>
            <threshold>-3.4354179661022499e-005</threshold>
            <left_val>0.4864718019962311</left_val>
            <right_val>-0.3510912954807282</right_val></_></_>
        <_>
          <_>
            <feature>
              <rects>
                <_>
                  11 17 8 3 -1.</_>
                <_>
                  11 18 8 1 3.</_></rects>
              <tilted>0</tilted></feature>
            <threshold>3.5623048897832632e-003</threshold>
            <left_val>0.1617728024721146</left_val>
            <right_val>-0.5654569864273071</right_val></_></_>
        <_>
          <_>
            <feature>
              <rects>
                <_>
                  2 17 3 4 -1.</_>
                <_>
                  3 17 1 4 3.</_></rects>
              <tilted>0</tilted></feature>
            <threshold>1.6636999789625406e-003</threshold>
            <left_val>0.3083007931709290</left_val>
            <right_val>-0.6330388188362122</right_val></_></_>
        <_>
          <_>
            <feature>
              <rects>
                <_>
                  17 11 2 2 -1.</_>
                <_>
                  18 11 1 1 2.</_>
                <_>
                  17 12 1 1 2.</_></rects>
              <tilted>0</tilted></feature>
            <threshold>5.1615439588204026e-004</threshold>
            <left_val>0.2405579984188080</left_val>
            <right_val>-0.5925046801567078</right_val></_></_>
        <_>
          <_>
            <feature>
              <rects>
                <_>
                  4 12 2 2 -1.</_>
                <_>
                  4 12 1 1 2.</_>
                <_>
                  5 13 1 1 2.</_></rects>
              <tilted>0</tilted></feature>
            <threshold>3.3428010647185147e-004</threshold>
            <left_val>0.3720428049564362</left_val>
            <right_val>-0.6671463847160339</right_val></_></_>
        <_>
          <_>
            <feature>
              <rects>
                <_>
                  10 13 12 3 -1.</_>
                <_>
                  10 14 12 1 3.</_></rects>
              <tilted>0</tilted></feature>
            <threshold>8.0751720815896988e-003</threshold>
            <left_val>0.1231393963098526</left_val>
            <right_val>-0.6535664200782776</right_val></_></_>
        <_>
          <_>
            <feature>
              <rects>
                <_>
                  5 17 7 3 -1.</_>
                <_>
                  5 18 7 1 3.</_></rects>
              <tilted>0</tilted></feature>
            <threshold>3.5976450890302658e-003</threshold>
            <left_val>0.2570739090442658</left_val>
            <right_val>-0.7869380116462708</right_val></_></_></trees>
      <stage_threshold>-2.9321119785308838</stage_threshold>
      <parent>1</parent>
      <next>-1</next></_>
    <_>
      <trees>
        <_>
          <_>
            <feature>
              <rects>
                <_>
                  0 3 24 19 -1.</_>
                <_>
                  6 3 12 19 2.</_></rects>
              <tilted>0</tilted></feature>
            <threshold>0.2555673122406006</threshold>
            <left_val>-0.3094654083251953</left_val>
            <right_val>0.6344552040100098</right_val></_></_>
        <_>
          <_>
            <feature>
              <rects>
                <_>
                  11 7 2 2 -1.</_>
                <_>
                  12 7 1 1 2.</_>
                <_>
                  11 8 1 1 2.</_></rects>
              <tilted>0</tilted></feature>
            <threshold>-6.6245382186025381e-004</threshold>
            <left_val>-0.7520635128021240</left_val>
            <right_val>0.1853578984737396</right_val></_></_>
        <_>
          <_>
            <feature>
              <rects>
                <_>
                  11 7 2 2 -1.</_>
                <_>
                  11 7 1 1 2.</_>
                <_>
                  12 8 1 1 2.</_></rects>
              <tilted>0</tilted></feature>
            <threshold>-8.2571269012987614e-004</threshold>
            <left_val>-0.8107092976570129</left_val>
            <right_val>0.1345565021038055</right_val></_></_>
        <_>
          <_>
            <feature>
              <rects>
                <_>
                  10 16 9 3 -1.</_>
                <_>
                  10 17 9 1 3.</_></rects>
              <tilted>0</tilted></feature>
            <threshold>4.6505499631166458e-003</threshold>
            <left_val>0.1187179982662201</left_val>
            <right_val>-0.7019674777984619</right_val></_></_>
        <_>
          <_>
            <feature>
              <rects>
                <_>
                  8 13 2 2 -1.</_>
                <_>
                  8 13 1 1 2.</_>
                <_>
                  9 14 1 1 2.</_></rects>
              <tilted>0</tilted></feature>
            <threshold>-7.4360589496791363e-004</threshold>
            <left_val>-0.7600582838058472</left_val>
            <right_val>0.1573230028152466</right_val></_></_>
        <_>
          <_>
            <feature>
              <rects>
                <_>
                  19 10 1 3 -1.</_>
                <_>
                  19 11 1 1 3.</_></rects>
              <tilted>0</tilted></feature>
            <threshold>1.4110440388321877e-003</threshold>
            <left_val>0.1005659028887749</left_val>
            <right_val>-0.6728224754333496</right_val></_></_>
        <_>
          <_>
            <feature>
              <rects>
                <_>
                  4 10 1 3 -1.</_>
                <_>
                  4 11 1 1 3.</_></rects>
              <tilted>0</tilted></feature>
            <threshold>-9.2487921938300133e-004</threshold>
            <left_val>-0.7358176112174988</left_val>
            <right_val>0.1382732987403870</right_val></_></_>
        <_>
          <_>
            <feature>
              <rects>
                <_>
                  17 10 4 3 -1.</_>
                <_>
                  17 11 4 1 3.</_></rects>
              <tilted>0</tilted></feature>
            <threshold>-2.4797678925096989e-003</threshold>
            <left_val>-0.4614872038364410</left_val>
            <right_val>0.0924456492066383</right_val></_></_>
        <_>
          <_>
            <feature>
              <rects>
                <_>
                  3 17 12 3 -1.</_>
                <_>
                  3 18 12 1 3.</_></rects>
              <tilted>0</tilted></feature>
            <threshold>-6.3369600102305412e-003</threshold>
            <left_val>-0.7284557223320007</left_val>
            <right_val>0.1453309953212738</right_val></_></_>
        <_>
          <_>
            <feature>
              <rects>
                <_>
                  9 10 13 3 -1.</_>
                <_>
                  9 11 13 1 3.</_></rects>
              <tilted>0</tilted></feature>
            <threshold>4.6964329667389393e-003</threshold>
            <left_val>0.0879310816526413</left_val>
            <right_val>-0.3871183097362518</right_val></_></_>
        <_>
          <_>
            <feature>
              <rects>
                <_>
                  2 12 9 3 -1.</_>
                <_>
                  2 13 9 1 3.</_></rects>
              <tilted>0</tilted></feature>
            <threshold>4.3260147795081139e-003</threshold>
            <left_val>0.1457220017910004</left_val>
            <right_val>-0.6582691073417664</right_val></_></_>
        <_>
          <_>
            <feature>
              <rects>
                <_>
                  17 10 4 3 -1.</_>
                <_>
                  17 11 4 1 3.</_></rects>
              <tilted>0</tilted></feature>
            <threshold>-6.1611537821590900e-003</threshold>
            <left_val>-0.5655214786529541</left_val>
            <right_val>0.0224396008998156</right_val></_></_>
        <_>
          <_>
            <feature>
              <rects>
                <_>
                  0 9 7 3 -1.</_>
                <_>
                  0 10 7 1 3.</_></rects>
              <tilted>0</tilted></feature>
            <threshold>-4.6450570225715637e-003</threshold>
            <left_val>-0.7386868000030518</left_val>
            <right_val>0.1304430067539215</right_val></_></_>
        <_>
          <_>
            <feature>
              <rects>
                <_>
                  20 4 4 19 -1.</_>
                <_>
                  20 4 2 19 2.</_></rects>
              <tilted>0</tilted></feature>
            <threshold>0.0344678796827793</threshold>
            <left_val>-0.1644369959831238</left_val>
            <right_val>0.6190128922462463</right_val></_></_></trees>
      <stage_threshold>-1.2635049819946289</stage_threshold>
      <parent>2</parent>
      <next>-1</next></_>
    <_>
      <trees>
        <_>
          <_>
            <feature>
              <rects>
                <_>
                  0 3 24 20 -1.</_>
                <_>
                  6 3 12 20 2.</_></rects>
              <tilted>0</tilted></feature>
            <threshold>0.2793892025947571</threshold>
            <left_val>-0.2633342146873474</left_val>
            <right_val>0.5658448934555054</right_val></_></_>
        <_>
          <_>
            <feature>
              <rects>
                <_>
                  2 0 20 24 -1.</_>
                <_>
                  2 6 20 12 2.</_></rects>
              <tilted>0</tilted></feature>
            <threshold>0.3272863030433655</threshold>
            <left_val>-0.2149903029203415</left_val>
            <right_val>0.4545918107032776</right_val></_></_>
        <_>
          <_>
            <feature>
              <rects>
                <_>
                  6 13 2 2 -1.</_>
                <_>
                  6 13 1 1 2.</_>
                <_>
                  7 14 1 1 2.</_></rects>
              <tilted>0</tilted></feature>
            <threshold>-6.5797322895377874e-004</threshold>
            <left_val>-0.7046390175819397</left_val>
            <right_val>0.1177105978131294</right_val></_></_>
        <_>
          <_>
            <feature>
              <rects>
                <_>
                  16 13 2 2 -1.</_>
                <_>
                  17 13 1 1 2.</_>
                <_>
                  16 14 1 1 2.</_></rects>
              <tilted>0</tilted></feature>
            <threshold>-7.6786178397014737e-004</threshold>
            <left_val>-0.5349134802818298</left_val>
            <right_val>0.1003262996673584</right_val></_></_>
        <_>
          <_>
            <feature>
              <rects>
                <_>
                  7 10 8 4 -1.</_>
                <_>
                  7 11 8 2 2.</_></rects>
              <tilted>0</tilted></feature>
            <threshold>-6.3774557784199715e-003</threshold>
            <left_val>-0.7789332866668701</left_val>
            <right_val>0.0748653411865234</right_val></_></_>
        <_>
          <_>
            <feature>
              <rects>
                <_>
                  6 10 14 4 -1.</_>
                <_>
                  6 11 14 2 2.</_></rects>
              <tilted>0</tilted></feature>
            <threshold>5.9557082131505013e-003</threshold>
            <left_val>0.1257867068052292</left_val>
            <right_val>-0.4846261143684387</right_val></_></_>
        <_>
          <_>
            <feature>
              <rects>
                <_>
                  0 4 4 20 -1.</_>
                <_>
                  2 4 2 20 2.</_></rects>
              <tilted>0</tilted></feature>
            <threshold>0.0229449905455112</threshold>
            <left_val>-0.1532071977853775</left_val>
            <right_val>0.4420194923877716</right_val></_></_>
        <_>
          <_>
            <feature>
              <rects>
                <_>
                  14 8 2 2 -1.</_>
                <_>
                  15 8 1 1 2.</_>
                <_>
                  14 9 1 1 2.</_></rects>
              <tilted>0</tilted></feature>
            <threshold>8.8274787412956357e-004</threshold>
            <left_val>0.0467145405709744</left_val>
            <right_val>-0.6518170833587647</right_val></_></_>
        <_>
          <_>
            <feature>
              <rects>
                <_>
                  8 8 2 2 -1.</_>
                <_>
                  8 8 1 1 2.</_>
                <_>
                  9 9 1 1 2.</_></rects>
              <tilted>0</tilted></feature>
            <threshold>-5.4048799211159348e-004</threshold>
            <left_val>-0.5963668227195740</left_val>
            <right_val>0.1271973997354507</right_val></_></_>
        <_>
          <_>
            <feature>
              <rects>
                <_>
                  7 11 13 4 -1.</_>
                <_>
                  7 12 13 2 2.</_></rects>
              <tilted>0</tilted></feature>
            <threshold>-6.4045591279864311e-003</threshold>
            <left_val>-0.5707495808601379</left_val>
            <right_val>0.0922507867217064</right_val></_></_>
        <_>
          <_>
            <feature>
              <rects>
                <_>
                  10 7 2 2 -1.</_>
                <_>
                  10 7 1 1 2.</_>
                <_>
                  11 8 1 1 2.</_></rects>
              <tilted>0</tilted></feature>
            <threshold>3.7268400774337351e-004</threshold>
            <left_val>0.1322748959064484</left_val>
            <right_val>-0.4819631874561310</right_val></_></_>
        <_>
          <_>
            <feature>
              <rects>
                <_>
                  12 7 2 2 -1.</_>
                <_>
                  13 7 1 1 2.</_>
                <_>
                  12 8 1 1 2.</_></rects>
              <tilted>0</tilted></feature>
            <threshold>-4.7872611321508884e-004</threshold>
            <left_val>-0.3074541091918945</left_val>
            <right_val>0.1023273989558220</right_val></_></_>
        <_>
          <_>
            <feature>
              <rects>
                <_>
                  8 9 3 11 -1.</_>
                <_>
                  9 9 1 11 3.</_></rects>
              <tilted>0</tilted></feature>
            <threshold>5.0902948714792728e-003</threshold>
            <left_val>0.0941918417811394</left_val>
            <right_val>-0.6541606187820435</right_val></_></_>
        <_>
          <_>
            <feature>
              <rects>
                <_>
                  11 9 8 3 -1.</_>
                <_>
                  11 10 8 1 3.</_></rects>
              <tilted>0</tilted></feature>
            <threshold>-2.9549610335379839e-003</threshold>
            <left_val>-0.4241744875907898</left_val>
            <right_val>0.0971816703677177</right_val></_></_>
        <_>
          <_>
            <feature>
              <rects>
                <_>
                  10 7 2 2 -1.</_>
                <_>
                  10 7 1 1 2.</_>
                <_>
                  11 8 1 1 2.</_></rects>
              <tilted>0</tilted></feature>
            <threshold>-5.9534818865358829e-004</threshold>
            <left_val>-0.5065407752990723</left_val>
            <right_val>0.1221022009849548</right_val></_></_>
        <_>
          <_>
            <feature>
              <rects>
                <_>
                  6 7 18 3 -1.</_>
                <_>
                  6 8 18 1 3.</_></rects>
              <tilted>0</tilted></feature>
            <threshold>-8.5039604455232620e-003</threshold>
            <left_val>-0.6108945012092590</left_val>
            <right_val>0.0437788702547550</right_val></_></_>
        <_>
          <_>
            <feature>
              <rects>
                <_>
                  10 17 2 2 -1.</_>
                <_>
                  10 17 1 1 2.</_>
                <_>
                  11 18 1 1 2.</_></rects>
              <tilted>0</tilted></feature>
            <threshold>-1.0293689556419849e-003</threshold>
            <left_val>-0.8383495807647705</left_val>
            <right_val>0.0566060617566109</right_val></_></_>
        <_>
          <_>
            <feature>
              <rects>
                <_>
                  20 9 4 14 -1.</_>
                <_>
                  20 9 2 14 2.</_></rects>
              <tilted>0</tilted></feature>
            <threshold>0.0470990985631943</threshold>
            <left_val>-0.0738655775785446</left_val>
            <right_val>0.7731996774673462</right_val></_></_>
        <_>
          <_>
            <feature>
              <rects>
                <_>
                  0 9 4 14 -1.</_>
                <_>
                  2 9 2 14 2.</_></rects>
              <tilted>0</tilted></feature>
            <threshold>-0.0127662802115083</threshold>
            <left_val>0.4880445897579193</left_val>
            <right_val>-0.1202958971261978</right_val></_></_>
        <_>
          <_>
            <feature>
              <rects>
                <_>
                  12 4 3 2 -1.</_>
                <_>
                  13 4 1 2 3.</_></rects>
              <tilted>0</tilted></feature>
            <threshold>-9.0588931925594807e-004</threshold>
            <left_val>-0.2083027958869934</left_val>
            <right_val>0.0704313889145851</right_val></_></_>
        <_>
          <_>
            <feature>
              <rects>
                <_>
                  0 1 2 16 -1.</_>
                <_>
                  1 1 1 16 2.</_></rects>
              <tilted>0</tilted></feature>
            <threshold>5.5291219614446163e-003</threshold>
            <left_val>-0.1475929021835327</left_val>
            <right_val>0.3474437892436981</right_val></_></_>
        <_>
          <_>
            <feature>
              <rects>
                <_>
                  12 4 3 2 -1.</_>
                <_>
                  13 4 1 2 3.</_></rects>
              <tilted>0</tilted></feature>
            <threshold>1.9026160007342696e-003</threshold>
            <left_val>0.0225514303892851</left_val>
            <right_val>-0.3716120123863220</right_val></_></_>
        <_>
          <_>
            <feature>
              <rects>
                <_>
                  9 4 3 2 -1.</_>
                <_>
                  10 4 1 2 3.</_></rects>
              <tilted>0</tilted></feature>
            <threshold>-2.2678659297525883e-003</threshold>
            <left_val>-0.7526944279670715</left_val>
            <right_val>0.0825409293174744</right_val></_></_></trees>
      <stage_threshold>-1.2330329418182373</stage_threshold>
      <parent>3</parent>
      <next>-1</next></_>
    <_>
      <trees>
        <_>
          <_>
            <feature>
              <rects>
                <_>
                  0 4 24 19 -1.</_>
                <_>
                  6 4 12 19 2.</_></rects>
              <tilted>0</tilted></feature>
            <threshold>0.1352279037237167</threshold>
            <left_val>-0.4180356860160828</left_val>
            <right_val>0.2610833942890167</right_val></_></_>
        <_>
          <_>
            <feature>
              <rects>
                <_>
                  2 0 21 8 -1.</_>
                <_>
                  2 4 21 4 2.</_></rects>
              <tilted>0</tilted></feature>
            <threshold>0.0949107632040977</threshold>
            <left_val>-0.2086260020732880</left_val>
            <right_val>0.3296411037445068</right_val></_></_>
        <_>
          <_>
            <feature>
              <rects>
                <_>
                  7 10 2 2 -1.</_>
                <_>
                  7 10 1 1 2.</_>
                <_>
                  8 11 1 1 2.</_></rects>
              <tilted>0</tilted></feature>
            <threshold>5.6994182523339987e-004</threshold>
            <left_val>0.0934683009982109</left_val>
            <right_val>-0.5937498807907105</right_val></_></_>
        <_>
          <_>
            <feature>
              <rects>
                <_>
                  17 4 3 6 -1.</_>
                <_>
                  18 5 1 6 3.</_></rects>
              <tilted>1</tilted></feature>
            <threshold>-5.1607261411845684e-003</threshold>
            <left_val>-0.2943331897258759</left_val>
            <right_val>0.0952348932623863</right_val></_></_>
        <_>
          <_>
            <feature>
              <rects>
                <_>
                  7 4 6 3 -1.</_>
                <_>
                  6 5 6 1 3.</_></rects>
              <tilted>1</tilted></feature>
            <threshold>7.6275849714875221e-003</threshold>
            <left_val>0.1448123008012772</left_val>
            <right_val>-0.4987123012542725</right_val></_></_>
        <_>
          <_>
            <feature>
              <rects>
                <_>
                  15 3 3 5 -1.</_>
                <_>
                  16 4 1 5 3.</_></rects>
              <tilted>1</tilted></feature>
            <threshold>-4.6923700720071793e-003</threshold>
            <left_val>-0.2844744920730591</left_val>
            <right_val>0.0584036111831665</right_val></_></_>
        <_>
          <_>
            <feature>
              <rects>
                <_>
                  9 3 5 3 -1.</_>
                <_>
                  8 4 5 1 3.</_></rects>
              <tilted>1</tilted></feature>
            <threshold>6.9281230680644512e-003</threshold>
            <left_val>0.1082080975174904</left_val>
            <right_val>-0.5403652191162109</right_val></_></_>
        <_>
          <_>
            <feature>
              <rects>
                <_>
                  11 6 2 2 -1.</_>
                <_>
                  12 6 1 1 2.</_>
                <_>
                  11 7 1 1 2.</_></rects>
              <tilted>0</tilted></feature>
            <threshold>-4.5207189396023750e-004</threshold>
            <left_val>-0.5198929905891419</left_val>
            <right_val>0.1188341975212097</right_val></_></_>
        <_>
          <_>
            <feature>
              <rects>
                <_>
                  0 6 6 14 -1.</_>
                <_>
                  3 6 3 14 2.</_></rects>
              <tilted>0</tilted></feature>
            <threshold>0.0356171689927578</threshold>
            <left_val>-0.1968726962804794</left_val>
            <right_val>0.3200337886810303</right_val></_></_>
        <_>
          <_>
            <feature>
              <rects>
                <_>
                  19 7 3 6 -1.</_>
                <_>
                  20 8 1 6 3.</_></rects>
              <tilted>1</tilted></feature>
            <threshold>-0.0102232396602631</threshold>
            <left_val>-0.4497875869274139</left_val>
            <right_val>0.0455076806247234</right_val></_></_>
        <_>
          <_>
            <feature>
              <rects>
                <_>
                  5 7 6 3 -1.</_>
                <_>
                  4 8 6 1 3.</_></rects>
              <tilted>1</tilted></feature>
            <threshold>5.3907497785985470e-003</threshold>
            <left_val>0.1322868019342423</left_val>
            <right_val>-0.4134838879108429</right_val></_></_>
        <_>
          <_>
            <feature>
              <rects>
                <_>
                  4 9 16 6 -1.</_>
                <_>
                  4 11 16 2 3.</_></rects>
              <tilted>0</tilted></feature>
            <threshold>-0.0137782702222466</threshold>
            <left_val>-0.5261629819869995</left_val>
            <right_val>0.0974624603986740</right_val></_></_>
        <_>
          <_>
            <feature>
              <rects>
                <_>
                  1 9 12 4 -1.</_>
                <_>
                  1 10 12 2 2.</_></rects>
              <tilted>0</tilted></feature>
            <threshold>8.4784086793661118e-003</threshold>
            <left_val>0.0561850182712078</left_val>
            <right_val>-0.6420497894287109</right_val></_></_>
        <_>
          <_>
            <feature>
              <rects>
                <_>
                  12 2 3 8 -1.</_>
                <_>
                  13 3 1 8 3.</_></rects>
              <tilted>1</tilted></feature>
            <threshold>-5.4066060110926628e-003</threshold>
            <left_val>-0.2564572989940643</left_val>
            <right_val>0.0728094279766083</right_val></_></_>
        <_>
          <_>
            <feature>
              <rects>
                <_>
                  12 2 8 3 -1.</_>
                <_>
                  11 3 8 1 3.</_></rects>
              <tilted>1</tilted></feature>
            <threshold>8.4089739248156548e-003</threshold>
            <left_val>0.0946789011359215</left_val>
            <right_val>-0.4321989119052887</right_val></_></_>
        <_>
          <_>
            <feature>
              <rects>
                <_>
                  14 3 3 10 -1.</_>
                <_>
                  15 4 1 10 3.</_></rects>
              <tilted>1</tilted></feature>
            <threshold>-0.0165337491780519</threshold>
            <left_val>-0.4761818945407867</left_val>
            <right_val>0.0288378708064556</right_val></_></_>
        <_>
          <_>
            <feature>
              <rects>
                <_>
                  10 3 10 3 -1.</_>
                <_>
                  9 4 10 1 3.</_></rects>
              <tilted>1</tilted></feature>
            <threshold>0.0101513303816319</threshold>
            <left_val>0.0904665663838387</left_val>
            <right_val>-0.4988746941089630</right_val></_></_>
        <_>
          <_>
            <feature>
              <rects>
                <_>
                  18 8 2 2 -1.</_>
                <_>
                  19 8 1 1 2.</_>
                <_>
                  18 9 1 1 2.</_></rects>
              <tilted>0</tilted></feature>
            <threshold>-5.1620212616398931e-004</threshold>
            <left_val>-0.2986848056316376</left_val>
            <right_val>0.0539378188550472</right_val></_></_>
        <_>
          <_>
            <feature>
              <rects>
                <_>
                  4 8 2 2 -1.</_>
                <_>
                  4 8 1 1 2.</_>
                <_>
                  5 9 1 1 2.</_></rects>
              <tilted>0</tilted></feature>
            <threshold>5.1259947940707207e-004</threshold>
            <left_val>0.0999792665243149</left_val>
            <right_val>-0.4595681130886078</right_val></_></_>
        <_>
          <_>
            <feature>
              <rects>
                <_>
                  3 13 19 4 -1.</_>
                <_>
                  3 14 19 2 2.</_></rects>
              <tilted>0</tilted></feature>
            <threshold>-7.4999309144914150e-003</threshold>
            <left_val>-0.4439088106155396</left_val>
            <right_val>0.0609441101551056</right_val></_></_>
        <_>
          <_>
            <feature>
              <rects>
                <_>
                  6 0 11 24 -1.</_>
                <_>
                  6 12 11 12 2.</_></rects>
              <tilted>0</tilted></feature>
            <threshold>0.3644508123397827</threshold>
            <left_val>0.0557912588119507</left_val>
            <right_val>-0.7123355865478516</right_val></_></_>
        <_>
          <_>
            <feature>
              <rects>
                <_>
                  21 16 1 3 -1.</_>
                <_>
                  21 17 1 1 3.</_></rects>
              <tilted>0</tilted></feature>
            <threshold>-2.0585379097610712e-003</threshold>
            <left_val>-0.5411329269409180</left_val>
            <right_val>0.0128705697134137</right_val></_></_>
        <_>
          <_>
            <feature>
              <rects>
                <_>
                  0 2 24 22 -1.</_>
                <_>
                  0 13 24 11 2.</_></rects>
              <tilted>0</tilted></feature>
            <threshold>-0.5176460146903992</threshold>
            <left_val>-0.6649038195610046</left_val>
            <right_val>0.0598203390836716</right_val></_></_>
        <_>
          <_>
            <feature>
              <rects>
                <_>
                  3 7 19 3 -1.</_>
                <_>
                  3 8 19 1 3.</_></rects>
              <tilted>0</tilted></feature>
            <threshold>-7.9636182636022568e-003</threshold>
            <left_val>-0.6199741959571838</left_val>
            <right_val>0.0427154712378979</right_val></_></_>
        <_>
          <_>
            <feature>
              <rects>
                <_>
                  5 22 14 2 -1.</_>
                <_>
                  5 23 14 1 2.</_></rects>
              <tilted>0</tilted></feature>
            <threshold>-6.8427198566496372e-003</threshold>
            <left_val>0.3214153945446014</left_val>
            <right_val>-0.1293053030967712</right_val></_></_>
        <_>
          <_>
            <feature>
              <rects>
                <_>
                  16 15 3 6 -1.</_>
                <_>
                  17 15 1 6 3.</_></rects>
              <tilted>0</tilted></feature>
            <threshold>3.7778480909764767e-003</threshold>
            <left_val>0.0321350693702698</left_val>
            <right_val>-0.3134365081787109</right_val></_></_>
        <_>
          <_>
            <feature>
              <rects>
                <_>
                  0 6 24 4 -1.</_>
                <_>
                  0 7 24 2 2.</_></rects>
              <tilted>0</tilted></feature>
            <threshold>9.4439685344696045e-003</threshold>
            <left_val>0.0957970693707466</left_val>
            <right_val>-0.4273056983947754</right_val></_></_>
        <_>
          <_>
            <feature>
              <rects>
                <_>
                  2 16 22 4 -1.</_>
                <_>
                  2 17 22 2 2.</_></rects>
              <tilted>0</tilted></feature>
            <threshold>-7.0083779282867908e-003</threshold>
            <left_val>-0.3313171863555908</left_val>
            <right_val>0.0881710723042488</right_val></_></_></trees>
      <stage_threshold>-0.9582487940788269</stage_threshold>
      <parent>4</parent>
      <next>-1</next></_>
    <_>
      <trees>
        <_>
          <_>
            <feature>
              <rects>
                <_>
                  0 4 24 17 -1.</_>
                <_>
                  6 4 12 17 2.</_></rects>
              <tilted>0</tilted></feature>
            <threshold>0.2215937972068787</threshold>
            <left_val>-0.2754082977771759</left_val>
            <right_val>0.3693228065967560</right_val></_></_>
        <_>
          <_>
            <feature>
              <rects>
                <_>
                  22 6 2 13 -1.</_>
                <_>
                  22 6 1 13 2.</_></rects>
              <tilted>0</tilted></feature>
            <threshold>7.0592309348285198e-003</threshold>
            <left_val>-0.1431185007095337</left_val>
            <right_val>0.5195928215980530</right_val></_></_>
        <_>
          <_>
            <feature>
              <rects>
                <_>
                  0 6 2 15 -1.</_>
                <_>
                  1 6 1 15 2.</_></rects>
              <tilted>0</tilted></feature>
            <threshold>7.6336450874805450e-003</threshold>
            <left_val>-0.1120586991310120</left_val>
            <right_val>0.4451350867748261</right_val></_></_>
        <_>
          <_>
            <feature>
              <rects>
                <_>
                  12 9 9 4 -1.</_>
                <_>
                  12 10 9 2 2.</_></rects>
              <tilted>0</tilted></feature>
            <threshold>6.7854351364076138e-003</threshold>
            <left_val>0.0390272103250027</left_val>
            <right_val>-0.3670969903469086</right_val></_></_>
        <_>
          <_>
            <feature>
              <rects>
                <_>
                  2 9 16 4 -1.</_>
                <_>
                  2 10 16 2 2.</_></rects>
              <tilted>0</tilted></feature>
            <threshold>-5.8981562033295631e-003</threshold>
            <left_val>-0.5523360967636108</left_val>
            <right_val>0.1287042051553726</right_val></_></_>
        <_>
          <_>
            <feature>
              <rects>
                <_>
                  13 7 7 3 -1.</_>
                <_>
                  12 8 7 1 3.</_></rects>
              <tilted>1</tilted></feature>
            <threshold>7.9355975612998009e-003</threshold>
            <left_val>0.0822272524237633</left_val>
            <right_val>-0.3794702887535095</right_val></_></_>
        <_>
          <_>
            <feature>
              <rects>
                <_>
                  10 6 2 4 -1.</_>
                <_>
                  10 6 1 2 2.</_>
                <_>
                  11 8 1 2 2.</_></rects>
              <tilted>0</tilted></feature>
            <threshold>-9.7391312010586262e-004</threshold>
            <left_val>-0.4508379101753235</left_val>
            <right_val>0.0750879272818565</right_val></_></_>
        <_>
          <_>
            <feature>
              <rects>
                <_>
                  13 8 10 3 -1.</_>
                <_>
                  12 9 10 1 3.</_></rects>
              <tilted>1</tilted></feature>
            <threshold>-7.3270979337394238e-003</threshold>
            <left_val>-0.2534877955913544</left_val>
            <right_val>0.0646023303270340</right_val></_></_>
        <_>
          <_>
            <feature>
              <rects>
                <_>
                  11 8 3 10 -1.</_>
                <_>
                  12 9 1 10 3.</_></rects>
              <tilted>1</tilted></feature>
            <threshold>7.4926451779901981e-003</threshold>
            <left_val>0.0949426516890526</left_val>
            <right_val>-0.3845671117305756</right_val></_></_>
        <_>
          <_>
            <feature>
              <rects>
                <_>
                  12 7 11 3 -1.</_>
                <_>
                  11 8 11 1 3.</_></rects>
              <tilted>1</tilted></feature>
            <threshold>9.0042408555746078e-003</threshold>
            <left_val>0.0855303034186363</left_val>
            <right_val>-0.3064545989036560</right_val></_></_>
        <_>
          <_>
            <feature>
              <rects>
                <_>
                  12 7 3 11 -1.</_>
                <_>
                  13 8 1 11 3.</_></rects>
              <tilted>1</tilted></feature>
            <threshold>-6.2767411582171917e-003</threshold>
            <left_val>-0.4069068133831024</left_val>
            <right_val>0.1179326996207237</right_val></_></_>
        <_>
          <_>
            <feature>
              <rects>
                <_>
                  3 16 20 2 -1.</_>
                <_>
                  3 17 20 1 2.</_></rects>
              <tilted>0</tilted></feature>
            <threshold>2.8509909752756357e-003</threshold>
            <left_val>0.0758830830454826</left_val>
            <right_val>-0.3061167895793915</right_val></_></_>
        <_>
          <_>
            <feature>
              <rects>
                <_>
                  1 7 14 3 -1.</_>
                <_>
                  1 8 14 1 3.</_></rects>
              <tilted>0</tilted></feature>
            <threshold>-3.9072511717677116e-003</threshold>
            <left_val>-0.4514837861061096</left_val>
            <right_val>0.0807230621576309</right_val></_></_>
        <_>
          <_>
            <feature>
              <rects>
                <_>
                  22 7 2 3 -1.</_>
                <_>
                  22 7 1 3 2.</_></rects>
              <tilted>0</tilted></feature>
            <threshold>-2.6797431055456400e-003</threshold>
            <left_val>0.2770065069198608</left_val>
            <right_val>-0.0345197916030884</right_val></_></_>
        <_>
          <_>
            <feature>
              <rects>
                <_>
                  2 13 20 6 -1.</_>
                <_>
                  2 15 20 2 3.</_></rects>
              <tilted>0</tilted></feature>
            <threshold>0.0225320607423782</threshold>
            <left_val>0.1032581031322479</left_val>
            <right_val>-0.3745802938938141</right_val></_></_>
        <_>
          <_>
            <feature>
              <rects>
                <_>
                  6 10 17 12 -1.</_>
                <_>
                  6 13 17 6 2.</_></rects>
              <tilted>0</tilted></feature>
            <threshold>-0.0135476198047400</threshold>
            <left_val>-0.2080983966588974</left_val>
            <right_val>0.0652757287025452</right_val></_></_>
        <_>
          <_>
            <feature>
              <rects>
                <_>
                  0 9 2 3 -1.</_>
                <_>
                  1 9 1 3 2.</_></rects>
              <tilted>0</tilted></feature>
            <threshold>-2.0198288839310408e-003</threshold>
            <left_val>0.5127050876617432</left_val>
            <right_val>-0.0728924870491028</right_val></_></_>
        <_>
          <_>
            <feature>
              <rects>
                <_>
                  14 14 3 7 -1.</_>
                <_>
                  15 15 1 7 3.</_></rects>
              <tilted>1</tilted></feature>
            <threshold>-5.1589771173894405e-003</threshold>
            <left_val>-0.3314405083656311</left_val>
            <right_val>0.0858745723962784</right_val></_></_>
        <_>
          <_>
            <feature>
              <rects>
                <_>
                  11 15 4 1 -1.</_>
                <_>
                  12 16 2 1 2.</_></rects>
              <tilted>1</tilted></feature>
            <threshold>9.0222590370103717e-004</threshold>
            <left_val>0.1332245022058487</left_val>
            <right_val>-0.2559024989604950</right_val></_></_>
        <_>
          <_>
            <feature>
              <rects>
                <_>
                  19 16 4 4 -1.</_>
                <_>
                  19 16 2 4 2.</_></rects>
              <tilted>1</tilted></feature>
            <threshold>0.0549614690244198</threshold>
            <left_val>-0.0211069006472826</left_val>
            <right_val>0.5615795850753784</right_val></_></_>
        <_>
          <_>
            <feature>
              <rects>
                <_>
                  8 12 3 1 -1.</_>
                <_>
                  9 12 1 1 3.</_></rects>
              <tilted>0</tilted></feature>
            <threshold>2.4121119349729270e-004</threshold>
            <left_val>0.1210305988788605</left_val>
            <right_val>-0.2818655073642731</right_val></_></_>
        <_>
          <_>
            <feature>
              <rects>
                <_>
                  6 8 17 4 -1.</_>
                <_>
                  6 9 17 2 2.</_></rects>
              <tilted>0</tilted></feature>
            <threshold>-6.1968481168150902e-003</threshold>
            <left_val>-0.2637633979320526</left_val>
            <right_val>0.0545625910162926</right_val></_></_>
        <_>
          <_>
            <feature>
              <rects>
                <_>
                  3 16 6 2 -1.</_>
                <_>
                  3 16 6 1 2.</_></rects>
              <tilted>1</tilted></feature>
            <threshold>0.0205825604498386</threshold>
            <left_val>-0.0440764799714088</left_val>
            <right_val>0.7594087123870850</right_val></_></_>
        <_>
          <_>
            <feature>
              <rects>
                <_>
                  16 8 3 15 -1.</_>
                <_>
                  17 8 1 15 3.</_></rects>
              <tilted>0</tilted></feature>
            <threshold>0.0160515494644642</threshold>
            <left_val>-1.3218809617683291e-003</left_val>
            <right_val>0.7341368198394775</right_val></_></_>
        <_>
          <_>
            <feature>
              <rects>
                <_>
                  5 8 3 15 -1.</_>
                <_>
                  6 8 1 15 3.</_></rects>
              <tilted>0</tilted></feature>
            <threshold>3.6709080450236797e-003</threshold>
            <left_val>0.0899494066834450</left_val>
            <right_val>-0.3815141916275024</right_val></_></_>
        <_>
          <_>
            <feature>
              <rects>
                <_>
                  12 2 8 22 -1.</_>
                <_>
                  12 13 8 11 2.</_></rects>
              <tilted>0</tilted></feature>
            <threshold>0.2355103045701981</threshold>
            <left_val>0.0104125300422311</left_val>
            <right_val>-0.2193123996257782</right_val></_></_>
        <_>
          <_>
            <feature>
              <rects>
                <_>
                  0 7 24 12 -1.</_>
                <_>
                  8 11 8 4 9.</_></rects>
              <tilted>0</tilted></feature>
            <threshold>0.5553113818168640</threshold>
            <left_val>-0.0516285598278046</left_val>
            <right_val>0.5980080962181091</right_val></_></_>
        <_>
          <_>
            <feature>
              <rects>
                <_>
                  6 4 17 6 -1.</_>
                <_>
                  6 6 17 2 3.</_></rects>
              <tilted>0</tilted></feature>
            <threshold>-0.0216043293476105</threshold>
            <left_val>-0.3558810949325562</left_val>
            <right_val>0.0703373327851295</right_val></_></_>
        <_>
          <_>
            <feature>
              <rects>
                <_>
                  11 7 7 3 -1.</_>
                <_>
                  10 8 7 1 3.</_></rects>
              <tilted>1</tilted></feature>
            <threshold>4.1583399288356304e-003</threshold>
            <left_val>0.1113654971122742</left_val>
            <right_val>-0.2838926017284393</right_val></_></_>
        <_>
          <_>
            <feature>
              <rects>
                <_>
                  20 6 4 5 -1.</_>
                <_>
                  21 6 2 5 2.</_></rects>
              <tilted>0</tilted></feature>
            <threshold>-9.0261281002312899e-004</threshold>
            <left_val>0.0840092673897743</left_val>
            <right_val>-0.0645994693040848</right_val></_></_>
        <_>
          <_>
            <feature>
              <rects>
                <_>
                  0 6 4 5 -1.</_>
                <_>
                  1 6 2 5 2.</_></rects>
              <tilted>0</tilted></feature>
            <threshold>8.2839103415608406e-003</threshold>
            <left_val>-0.0460319891571999</left_val>
            <right_val>0.7873740792274475</right_val></_></_>
        <_>
          <_>
            <feature>
              <rects>
                <_>
                  22 0 2 4 -1.</_>
                <_>
                  21 1 2 2 2.</_></rects>
              <tilted>1</tilted></feature>
            <threshold>-6.5737687982618809e-003</threshold>
            <left_val>0.3300853073596954</left_val>
            <right_val>-0.0491253584623337</right_val></_></_>
        <_>
          <_>
            <feature>
              <rects>
                <_>
                  11 5 13 6 -1.</_>
                <_>
                  9 7 13 2 3.</_></rects>
              <tilted>1</tilted></feature>
            <threshold>-9.4139901921153069e-003</threshold>
            <left_val>-0.3130092918872833</left_val>
            <right_val>0.1212762966752052</right_val></_></_>
        <_>
          <_>
            <feature>
