<?xml version="1.0"?>
<opencv_storage>
<chrodo-detector-10stages type_id="opencv-haar-classifier">
  <size>
    25 25</size>
  <stages>
    <_>
      <trees>
        <_>
          <_>
            <feature>
              <rects>
                <_>
                  0 0 13 6 -1.</_>
                <_>
                  0 3 13 3 2.</_></rects>
              <tilted>0</tilted></feature>
            <threshold>7.9998392611742020e-003</threshold>
            <left_val>-0.6800001263618469</left_val>
            <right_val>0.6799998879432678</right_val></_></_>
        <_>
          <_>
            <feature>
              <rects>
                <_>
                  11 4 10 16 -1.</_>
                <_>
                  11 4 5 16 2.</_></rects>
              <tilted>0</tilted></feature>
            <threshold>0.1056485995650291</threshold>
            <left_val>-0.0876453667879105</left_val>
            <right_val>1.0000009536743164</right_val></_></_>
        <_>
          <_>
            <feature>
              <rects>
                <_>
                  5 12 4 8 -1.</_>
                <_>
                  7 12 2 8 2.</_></rects>
              <tilted>0</tilted></feature>
            <threshold>6.0035940259695053e-003</threshold>
            <left_val>-0.5526273250579834</left_val>
            <right_val>0.7153704762458801</right_val></_></_></trees>
      <stage_threshold>-0.2326267957687378</stage_threshold>
      <parent>-1</parent>
      <next>-1</next></_>
    <_>
      <trees>
        <_>
          <_>
            <feature>
              <rects>
                <_>
                  7 3 6 7 -1.</_>
                <_>
                  9 3 2 7 3.</_></rects>
              <tilted>0</tilted></feature>
            <threshold>1.3231859775260091e-003</threshold>
            <left_val>-0.6404495835304260</left_val>
            <right_val>0.5135136246681213</right_val></_></_>
        <_>
          <_>
            <feature>
              <rects>
                <_>
                  13 7 9 4 -1.</_>
                <_>
                  12 8 9 2 2.</_></rects>
              <tilted>1</tilted></feature>
            <threshold>0.0186262391507626</threshold>
            <left_val>-0.2127290070056915</left_val>
            <right_val>0.4925330877304077</right_val></_></_>
        <_>
          <_>
            <feature>
              <rects>
                <_>
                  10 7 6 8 -1.</_>
                <_>
                  12 9 2 8 3.</_></rects>
              <tilted>1</tilted></feature>
            <threshold>-2.9695110861212015e-003</threshold>
            <left_val>0.5963466763496399</left_val>
            <right_val>-0.7229874134063721</right_val></_></_>
        <_>
          <_>
            <feature>
              <rects>
                <_>
                  10 0 5 8 -1.</_>
                <_>
                  10 4 5 4 2.</_></rects>
              <tilted>0</tilted></feature>
            <threshold>7.3012090288102627e-003</threshold>
            <left_val>-0.7186033725738525</left_val>
            <right_val>0.6167973279953003</right_val></_></_></trees>
      <stage_threshold>-0.2701731920242310</stage_threshold>
      <parent>0</parent>
      <next>-1</next></_>
    <_>
      <trees>
        <_>
          <_>
            <feature>
              <rects>
                <_>
                  0 7 18 8 -1.</_>
                <_>
                  9 7 9 8 2.</_></rects>
              <tilted>0</tilted></feature>
            <threshold>0.0500251501798630</threshold>
            <left_val>-0.4754098057746887</left_val>
            <right_val>0.7435895204544067</right_val></_></_>
        <_>
          <_>
            <feature>
              <rects>
                <_>
                  23 6 2 16 -1.</_>
                <_>
                  23 14 2 8 2.</_></rects>
              <tilted>0</tilted></feature>
            <threshold>-3.0939669813960791e-003</threshold>
            <left_val>0.3739176094532013</left_val>
            <right_val>-0.4570601880550385</right_val></_></_>
        <_>
          <_>
            <feature>
              <rects>
                <_>
                  2 21 21 4 -1.</_>
                <_>
                  2 22 21 2 2.</_></rects>
              <tilted>0</tilted></feature>
            <threshold>-3.1537329778075218e-003</threshold>
            <left_val>0.6226766705513001</left_val>
            <right_val>-0.7031103968620300</right_val></_></_>
        <_>
          <_>
            <feature>
              <rects>
                <_>
                  7 5 13 2 -1.</_>
                <_>
                  7 6 13 1 2.</_></rects>
              <tilted>0</tilted></feature>
            <threshold>1.4973699580878019e-004</threshold>
            <left_val>-0.3608880043029785</left_val>
            <right_val>0.2322624027729034</right_val></_></_></trees>
      <stage_threshold>-0.5723403096199036</stage_threshold>
      <parent>1</parent>
      <next>-1</next></_>
    <_>
      <trees>
        <_>
          <_>
            <feature>
              <rects>
                <_>
                  6 0 6 9 -1.</_>
                <_>
                  8 3 2 3 9.</_></rects>
              <tilted>0</tilted></feature>
            <threshold>2.4280989600811154e-004</threshold>
            <left_val>-0.6701031923294067</left_val>
            <right_val>0.6310681104660034</right_val></_></_>
        <_>
          <_>
            <feature>
              <rects>
                <_>
                  20 3 4 10 -1.</_>
                <_>
                  22 3 2 5 2.</_>
                <_>
                  20 8 2 5 2.</_></rects>
              <tilted>0</tilted></feature>
            <threshold>7.2852213634178042e-005</threshold>
            <left_val>-0.5936576128005981</left_val>
            <right_val>0.2870433926582336</right_val></_></_>
        <_>
          <_>
            <feature>
              <rects>
                <_>
                  0 12 10 2 -1.</_>
                <_>
                  5 12 5 2 2.</_></rects>
              <tilted>0</tilted></feature>
            <threshold>4.0270588942803442e-004</threshold>
            <left_val>-0.8265172243118286</left_val>
            <right_val>0.7456424236297607</right_val></_></_>
        <_>
          <_>
            <feature>
              <rects>
                <_>
                  22 0 2 2 -1.</_>
                <_>
                  22 1 2 1 2.</_></rects>
              <tilted>0</tilted></feature>
            <threshold>-6.4688659040257335e-004</threshold>
            <left_val>0.6027480959892273</left_val>
            <right_val>-0.8007050156593323</right_val></_></_>
        <_>
          <_>
            <feature>
              <rects>
                <_>
                  1 0 3 2 -1.</_>
                <_>
                  1 1 3 1 2.</_></rects>
              <tilted>0</tilted></feature>
            <threshold>1.7002079403027892e-004</threshold>
            <left_val>-0.8613495230674744</left_val>
            <right_val>0.8945012092590332</right_val></_></_>
        <_>
          <_>
            <feature>
              <rects>
                <_>
                  22 13 3 9 -1.</_>
                <_>
                  23 16 1 3 9.</_></rects>
              <tilted>0</tilted></feature>
            <threshold>1.0135079501196742e-003</threshold>
            <left_val>-0.8661034703254700</left_val>
            <right_val>0.6464073061943054</right_val></_></_>
        <_>
          <_>
            <feature>
              <rects>
                <_>
                  6 3 1 4 -1.</_>
                <_>
                  5 4 1 2 2.</_></rects>
              <tilted>1</tilted></feature>
            <threshold>-4.9248199502471834e-005</threshold>
            <left_val>1.</left_val>
            <right_val>-0.9928309917449951</right_val></_></_>
        <_>
          <_>
            <feature>
              <rects>
                <_>
                  15 9 3 4 -1.</_>
                <_>
                  16 10 1 4 3.</_></rects>
              <tilted>1</tilted></feature>
            <threshold>3.0206439550966024e-003</threshold>
            <left_val>-0.8715816140174866</left_val>
            <right_val>0.8528687953948975</right_val></_></_>
        <_>
          <_>
            <feature>
              <rects>
                <_>
                  6 5 2 9 -1.</_>
                <_>
                  7 5 1 9 2.</_></rects>
              <tilted>0</tilted></feature>
            <threshold>5.0124770496040583e-005</threshold>
            <left_val>-0.9932497739791870</left_val>
            <right_val>0.9999992251396179</right_val></_></_>
        <_>
          <_>
            <feature>
              <rects>
                <_>
                  24 0 1 2 -1.</_>
                <_>
                  24 1 1 1 2.</_></rects>
              <tilted>0</tilted></feature>
            <threshold>1.7859399667941034e-004</threshold>
            <left_val>-1.</left_val>
            <right_val>1.</right_val></_></_>
        <_>
          <_>
            <feature>
              <rects>
                <_>
                  0 0 2 1 -1.</_>
                <_>
                  1 0 1 1 2.</_></rects>
              <tilted>0</tilted></feature>
            <threshold>0.</threshold>
            <left_val>0.</left_val>
            <right_val>-1.</right_val></_></_>
        <_>
          <_>
            <feature>
              <rects>
                <_>
                  22 0 3 15 -1.</_>
                <_>
                  23 5 1 5 9.</_></rects>
              <tilted>0</tilted></feature>
            <threshold>-1.9305839668959379e-003</threshold>
            <left_val>1.</left_val>
            <right_val>-0.9845293164253235</right_val></_></_>
        <_>
          <_>
            <feature>
              <rects>
                <_>
                  6 7 8 5 -1.</_>
                <_>
                  8 9 4 5 2.</_></rects>
              <tilted>1</tilted></feature>
            <threshold>-7.2581181302666664e-004</threshold>
            <left_val>1.</left_val>
            <right_val>-1.</right_val></_></_>
        <_>
          <_>
            <feature>
              <rects>
                <_>
                  16 14 3 6 -1.</_>
                <_>
                  16 16 3 2 3.</_></rects>
              <tilted>0</tilted></feature>
            <threshold>2.1913570817559958e-003</threshold>
            <left_val>-0.9022691249847412</left_val>
            <right_val>0.3588730096817017</right_val></_></_>
        <_>
          <_>
            <feature>
              <rects>
                <_>
                  10 1 2 2 -1.</_>
                <_>
                  10 1 1 2 2.</_></rects>
              <tilted>1</tilted></feature>
            <threshold>-2.0866470003966242e-004</threshold>
            <left_val>1.</left_val>
            <right_val>-0.9707214236259460</right_val></_></_>
        <_>
          <_>
            <feature>
              <rects>
                <_>
                  14 16 9 3 -1.</_>
                <_>
                  17 17 3 1 9.</_></rects>
              <tilted>0</tilted></feature>
            <threshold>-6.9871707819402218e-003</threshold>
            <left_val>0.5355299115180969</left_val>
            <right_val>-0.8332738876342773</right_val></_></_>
        <_>
          <_>
            <feature>
              <rects>
                <_>
                  2 16 9 3 -1.</_>
                <_>
                  5 17 3 1 9.</_></rects>
              <tilted>0</tilted></feature>
            <threshold>-1.4606530021410435e-004</threshold>
            <left_val>0.9768583178520203</left_val>
            <right_val>-0.8728669881820679</right_val></_></_></trees>
      <stage_threshold>0.1203996986150742</stage_threshold>
      <parent>2</parent>
      <next>-1</next></_>
    <_>
      <trees>
        <_>
          <_>
            <feature>
              <rects>
                <_>
                  0 4 12 2 -1.</_>
                <_>
                  0 4 6 1 2.</_>
                <_>
                  6 5 6 1 2.</_></rects>
              <tilted>0</tilted></feature>
            <threshold>2.8249609749764204e-003</threshold>
            <left_val>0.3061225116252899</left_val>
            <right_val>-0.8490573763847351</right_val></_></_>
        <_>
          <_>
            <feature>
              <rects>
                <_>
                  12 0 6 3 -1.</_>
                <_>
                  12 1 6 1 3.</_></rects>
              <tilted>0</tilted></feature>
            <threshold>-5.6325709447264671e-003</threshold>
            <left_val>-0.4722827970981598</left_val>
            <right_val>0.0410918109118938</right_val></_></_>
        <_>
          <_>
            <feature>
              <rects>
                <_>
                  1 6 2 10 -1.</_>
                <_>
                  2 6 1 10 2.</_></rects>
              <tilted>0</tilted></feature>
            <threshold>1.9663861021399498e-003</threshold>
            <left_val>-0.5263426899909973</left_val>
            <right_val>0.5681269168853760</right_val></_></_>
        <_>
          <_>
            <feature>
              <rects>
                <_>
                  13 0 5 3 -1.</_>
                <_>
                  13 1 5 1 3.</_></rects>
              <tilted>0</tilted></feature>
            <threshold>-0.0113955903798342</threshold>
            <left_val>0.5291242003440857</left_val>
            <right_val>-0.0545267313718796</right_val></_></_>
        <_>
          <_>
            <feature>
              <rects>
                <_>
                  7 0 5 3 -1.</_>
                <_>
                  7 1 5 1 3.</_></rects>
              <tilted>0</tilted></feature>
            <threshold>-2.5763791054487228e-003</threshold>
            <left_val>-0.8364002704620361</left_val>
            <right_val>0.4456222057342529</right_val></_></_></trees>
      <stage_threshold>0.0244142394512892</stage_threshold>
      <parent>3</parent>
      <next>-1</next></_>
    <_>
      <trees>
        <_>
          <_>
            <feature>
              <rects>
                <_>
                  0 12 1 12 -1.</_>
                <_>
                  0 15 1 6 2.</_></rects>
              <tilted>0</tilted></feature>
            <threshold>2.8947929386049509e-003</threshold>
            <left_val>0.2885907888412476</left_val>
            <right_val>-0.8431385755538940</right_val></_></_>
        <_>
          <_>
            <feature>
              <rects>
                <_>
                  10 0 6 24 -1.</_>
                <_>
                  12 0 2 24 3.</_></rects>
              <tilted>0</tilted></feature>
            <threshold>6.7730019800364971e-003</threshold>
            <left_val>0.1070133969187737</left_val>
            <right_val>-0.3374997973442078</right_val></_></_>
        <_>
          <_>
            <feature>
              <rects>
                <_>
                  6 5 8 4 -1.</_>
                <_>
                  8 5 4 4 2.</_></rects>
              <tilted>0</tilted></feature>
            <threshold>-7.2717701550573111e-004</threshold>
            <left_val>0.6403189897537231</left_val>
            <right_val>-0.4279896020889282</right_val></_></_>
        <_>
          <_>
            <feature>
              <rects>
                <_>
                  18 6 1 18 -1.</_>
                <_>
                  12 12 1 6 3.</_></rects>
              <tilted>1</tilted></feature>
            <threshold>-0.0127970101311803</threshold>
            <left_val>-0.4356502890586853</left_val>
            <right_val>0.2558799088001251</right_val></_></_></trees>
      <stage_threshold>-0.4680357873439789</stage_threshold>
      <parent>4</parent>
      <next>-1</next></_>
    <_>
      <trees>
        <_>
          <_>
            <feature>
              <rects>
                <_>
                  7 20 3 3 -1.</_>
                <_>
                  8 20 1 3 3.</_></rects>
              <tilted>0</tilted></feature>
            <threshold>2.7213189750909805e-003</threshold>
            <left_val>-0.3650794029235840</left_val>
            <right_val>0.6216217279434204</right_val></_></_>
        <_>
          <_>
            <feature>
              <rects>
                <_>
                  14 2 3 3 -1.</_>
                <_>
                  15 2 1 3 3.</_></rects>
              <tilted>0</tilted></feature>
            <threshold>3.0417169909924269e-003</threshold>
            <left_val>0.1024103015661240</left_val>
            <right_val>-0.7396758198738098</right_val></_></_>
        <_>
          <_>
            <feature>
              <rects>
                <_>
                  10 15 3 2 -1.</_>
                <_>
                  11 15 1 2 3.</_></rects>
              <tilted>0</tilted></feature>
            <threshold>-2.0189359784126282e-003</threshold>
            <left_val>0.8992018103599548</left_val>
            <right_val>-0.3180230855941773</right_val></_></_>
        <_>
          <_>
            <feature>
              <rects>
                <_>
                  23 18 2 2 -1.</_>
                <_>
                  24 18 1 1 2.</_>
                <_>
                  23 19 1 1 2.</_></rects>
              <tilted>0</tilted></feature>
            <threshold>-2.1230170968919992e-003</threshold>
            <left_val>-1.</left_val>
            <right_val>0.1216121986508369</right_val></_></_>
        <_>
          <_>
            <feature>
              <rects>
                <_>
                  0 18 2 2 -1.</_>
                <_>
                  0 18 1 1 2.</_>
                <_>
                  1 19 1 1 2.</_></rects>
              <tilted>0</tilted></feature>
            <threshold>9.2980387853458524e-004</threshold>
            <left_val>-0.5163422226905823</left_val>
            <right_val>0.6884894967079163</right_val></_></_></trees>
      <stage_threshold>0.0112789897248149</stage_threshold>
      <parent>5</parent>
      <next>-1</next></_>
    <_>
      <trees>
        <_>
          <_>
            <feature>
              <rects>
                <_>
                  1 13 12 6 -1.</_>
                <_>
                  7 13 6 6 2.</_></rects>
              <tilted>0</tilted></feature>
            <threshold>0.0265823807567358</threshold>
            <left_val>0.4608696103096008</left_val>
            <right_val>-0.6235300898551941</right_val></_></_>
        <_>
          <_>
            <feature>
              <rects>
                <_>
                  23 16 2 2 -1.</_>
                <_>
                  24 16 1 1 2.</_>
                <_>
                  23 17 1 1 2.</_></rects>
              <tilted>0</tilted></feature>
            <threshold>6.4775248756632209e-004</threshold>
            <left_val>-0.2055124044418335</left_val>
            <right_val>0.3638207018375397</right_val></_></_>
        <_>
          <_>
            <feature>
              <rects>
                <_>
                  0 16 2 2 -1.</_>
                <_>
                  0 16 1 1 2.</_>
                <_>
                  1 17 1 1 2.</_></rects>
              <tilted>0</tilted></feature>
            <threshold>1.0174929630011320e-003</threshold>
            <left_val>-0.3444449007511139</left_val>
            <right_val>0.9262133836746216</right_val></_></_></trees>
      <stage_threshold>-0.6041544079780579</stage_threshold>
      <parent>6</parent>
      <next>-1</next></_>
    <_>
      <trees>
        <_>
          <_>
            <feature>
              <rects>
                <_>
                  4 5 12 19 -1.</_>
                <_>
                  7 5 6 19 2.</_></rects>
              <tilted>0</tilted></feature>
            <threshold>0.0285369791090488</threshold>
            <left_val>0.3430657982826233</left_val>
            <right_val>-0.7460327148437500</right_val></_></_>
        <_>
          <_>
            <feature>
              <rects>
                <_>
                  13 8 3 3 -1.</_>
                <_>
                  14 9 1 1 9.</_></rects>
              <tilted>0</tilted></feature>
            <threshold>-7.7489060349762440e-003</threshold>
            <left_val>0.5321062207221985</left_val>
            <right_val>-0.2425073981285095</right_val></_></_></trees>
      <stage_threshold>-0.2139265984296799</stage_threshold>
      <parent>7</parent>
      <next>-1</next></_>
    <_>
      <trees>
        <_>
          <_>
            <feature>
              <rects>
                <_>
                  7 8 4 6 -1.</_>
                <_>
                  7 8 4 3 2.</_></rects>
              <tilted>1</tilted></feature>
            <threshold>-1.0017589665949345e-003</threshold>
            <left_val>-0.6799998879432678</left_val>
            <right_val>0.4080002009868622</right_val></_></_>
        <_>
          <_>
            <feature>
              <rects>
                <_>
                  14 18 10 6 -1.</_>
                <_>
                  14 20 10 2 3.</_></rects>
              <tilted>0</tilted></feature>
            <threshold>-0.0234026797115803</threshold>
            <left_val>-1.</left_val>
            <right_val>0.0294222198426723</right_val></_></_>
        <_>
          <_>
            <feature>
              <rects>
                <_>
                  1 18 10 6 -1.</_>
                <_>
                  1 20 10 2 3.</_></rects>
              <tilted>0</tilted></feature>
            <threshold>9.5117334276437759e-003</threshold>
            <left_val>-0.4964958131313324</left_val>
            <right_val>0.6147589087486267</right_val></_></_></trees>
      <stage_threshold>-0.0590734183788300</stage_threshold>
      <parent>8</parent>
      <next>-1</next></_></stages></chrodo-detector-10stages>
</opencv_storage>
