<?xml version="1.0"?>
<opencv_storage>
<miccal-cascades-19stages type_id="opencv-haar-classifier">
  <size>
    20 20</size>
  <stages>
    <_>
      <trees>
        <_>
          <_>
            <feature>
              <rects>
                <_>
                  6 2 6 1 -1.</_>
                <_>
                  6 2 3 1 2.</_></rects>
              <tilted>1</tilted></feature>
            <threshold>-3.3496520482003689e-003</threshold>
            <left_val>0.6263728737831116</left_val>
            <right_val>-0.9999964833259583</right_val></_></_></trees>
      <stage_threshold>0.6263728737831116</stage_threshold>
      <parent>-1</parent>
      <next>-1</next></_>
    <_>
      <trees>
        <_>
          <_>
            <feature>
              <rects>
                <_>
                  1 9 18 5 -1.</_>
                <_>
                  7 9 6 5 3.</_></rects>
              <tilted>0</tilted></feature>
            <threshold>0.0533136799931526</threshold>
            <left_val>-0.6703783273696899</left_val>
            <right_val>0.6856489181518555</right_val></_></_>
        <_>
          <_>
            <feature>
              <rects>
                <_>
                  8 6 9 6 -1.</_>
                <_>
                  11 8 3 2 9.</_></rects>
              <tilted>0</tilted></feature>
            <threshold>-3.6646169610321522e-003</threshold>
            <left_val>-0.7108060717582703</left_val>
            <right_val>0.2550174891948700</right_val></_></_>
        <_>
          <_>
            <feature>
              <rects>
                <_>
                  4 2 10 5 -1.</_>
                <_>
                  9 2 5 5 2.</_></rects>
              <tilted>0</tilted></feature>
            <threshold>0.0196700692176819</threshold>
            <left_val>-0.9096978902816773</left_val>
            <right_val>0.4590673148632050</right_val></_></_></trees>
      <stage_threshold>0.0309685505926609</stage_threshold>
      <parent>0</parent>
      <next>-1</next></_>
    <_>
      <trees>
        <_>
          <_>
            <feature>
              <rects>
                <_>
                  3 8 9 3 -1.</_>
                <_>
                  6 9 3 1 9.</_></rects>
              <tilted>0</tilted></feature>
            <threshold>-1.6451870324090123e-003</threshold>
            <left_val>0.4230765104293823</left_val>
            <right_val>-0.9999967813491821</right_val></_></_></trees>
      <stage_threshold>0.4230765104293823</stage_threshold>
      <parent>1</parent>
      <next>-1</next></_>
    <_>
      <trees>
        <_>
          <_>
            <feature>
              <rects>
                <_>
                  4 8 5 3 -1.</_>
                <_>
                  4 9 5 1 3.</_></rects>
              <tilted>0</tilted></feature>
            <threshold>-5.9339487925171852e-003</threshold>
            <left_val>-1.</left_val>
            <right_val>0.4439016878604889</right_val></_></_></trees>
      <stage_threshold>0.4439016878604889</stage_threshold>
      <parent>2</parent>
      <next>-1</next></_>
    <_>
      <trees>
        <_>
          <_>
            <feature>
              <rects>
                <_>
                  10 6 8 2 -1.</_>
                <_>
                  10 6 8 1 2.</_></rects>
              <tilted>1</tilted></feature>
            <threshold>5.6321769952774048e-003</threshold>
            <left_val>0.3703700900077820</left_val>
            <right_val>-0.9999967217445374</right_val></_></_></trees>
      <stage_threshold>0.3703700900077820</stage_threshold>
      <parent>3</parent>
      <next>-1</next></_>
    <_>
      <trees>
        <_>
          <_>
            <feature>
              <rects>
                <_>
                  10 2 8 9 -1.</_>
                <_>
                  7 5 8 3 3.</_></rects>
              <tilted>1</tilted></feature>
            <threshold>0.0344192013144493</threshold>
            <left_val>0.4439021050930023</left_val>
            <right_val>-0.9999964833259583</right_val></_></_></trees>
      <stage_threshold>0.4439021050930023</stage_threshold>
      <parent>4</parent>
      <next>-1</next></_>
    <_>
      <trees>
        <_>
          <_>
            <feature>
              <rects>
                <_>
                  10 2 7 8 -1.</_>
                <_>
                  8 4 7 4 2.</_></rects>
              <tilted>1</tilted></feature>
            <threshold>-0.0169235207140446</threshold>
            <left_val>-1.</left_val>
            <right_val>0.3515973985195160</right_val></_></_></trees>
      <stage_threshold>0.3515973985195160</stage_threshold>
      <parent>5</parent>
      <next>-1</next></_>
    <_>
      <trees>
        <_>
          <_>
            <feature>
              <rects>
                <_>
                  8 11 2 8 -1.</_>
                <_>
                  8 11 1 4 2.</_>
                <_>
                  9 15 1 4 2.</_></rects>
              <tilted>0</tilted></feature>
            <threshold>3.5292180837132037e-004</threshold>
            <left_val>-0.7291849851608276</left_val>
            <right_val>0.5073195099830627</right_val></_></_>
        <_>
          <_>
            <feature>
              <rects>
                <_>
                  7 8 6 4 -1.</_>
                <_>
                  9 8 2 4 3.</_></rects>
              <tilted>0</tilted></feature>
            <threshold>0.0392700210213661</threshold>
            <left_val>-0.4849323928356171</left_val>
            <right_val>0.8069003224372864</right_val></_></_></trees>
      <stage_threshold>0.0223870296031237</stage_threshold>
      <parent>6</parent>
      <next>-1</next></_>
    <_>
      <trees>
        <_>
          <_>
            <feature>
              <rects>
                <_>
                  10 5 6 4 -1.</_>
                <_>
                  9 6 6 2 2.</_></rects>
              <tilted>1</tilted></feature>
            <threshold>7.1441270411014557e-003</threshold>
            <left_val>0.5813949704170227</left_val>
            <right_val>-0.8620665073394775</right_val></_></_>
        <_>
          <_>
            <feature>
              <rects>
                <_>
                  15 0 3 16 -1.</_>
                <_>
                  16 0 1 16 3.</_></rects>
              <tilted>0</tilted></feature>
            <threshold>-0.0121954297646880</threshold>
            <left_val>-1.</left_val>
            <right_val>0.0484151691198349</right_val></_></_>
        <_>
          <_>
            <feature>
              <rects>
                <_>
                  2 0 3 16 -1.</_>
                <_>
                  3 0 1 16 3.</_></rects>
              <tilted>0</tilted></feature>
            <threshold>3.7750019691884518e-003</threshold>
            <left_val>0.3446238040924072</left_val>
            <right_val>-1.0000009536743164</right_val></_></_>
        <_>
          <_>
            <feature>
              <rects>
                <_>
                  14 0 6 3 -1.</_>
                <_>
                  16 2 2 3 3.</_></rects>
              <tilted>1</tilted></feature>
            <threshold>0.0862322300672531</threshold>
            <left_val>-0.2529725134372711</left_val>
            <right_val>0.9049805998802185</right_val></_></_>
        <_>
          <_>
            <feature>
              <rects>
                <_>
                  5 0 3 4 -1.</_>
                <_>
                  4 1 3 2 2.</_></rects>
              <tilted>1</tilted></feature>
            <threshold>-4.9435389228165150e-003</threshold>
            <left_val>-1.</left_val>
            <right_val>0.4237087965011597</right_val></_></_></trees>
      <stage_threshold>-0.2982912063598633</stage_threshold>
      <parent>7</parent>
      <next>-1</next></_>
    <_>
      <trees>
        <_>
          <_>
            <feature>
              <rects>
                <_>
                  5 3 5 4 -1.</_>
                <_>
                  4 4 5 2 2.</_></rects>
              <tilted>1</tilted></feature>
            <threshold>-8.1099569797515869e-003</threshold>
            <left_val>-1.</left_val>
            <right_val>0.3039639890193939</right_val></_></_>
        <_>
          <_>
            <feature>
              <rects>
                <_>
                  17 1 3 7 -1.</_>
                <_>
                  18 2 1 7 3.</_></rects>
              <tilted>1</tilted></feature>
            <threshold>0.0468348897993565</threshold>
            <left_val>-0.2460637986660004</left_val>
            <right_val>0.8710318803787231</right_val></_></_>
        <_>
          <_>
            <feature>
              <rects>
                <_>
                  3 1 7 3 -1.</_>
                <_>
                  2 2 7 1 3.</_></rects>
              <tilted>1</tilted></feature>
            <threshold>1.2666380498558283e-003</threshold>
            <left_val>0.3803353905677795</left_val>
            <right_val>-0.9999995827674866</right_val></_></_></trees>
      <stage_threshold>0.4382356107234955</stage_threshold>
      <parent>8</parent>
      <next>-1</next></_>
    <_>
      <trees>
        <_>
          <_>
            <feature>
              <rects>
                <_>
                  2 5 3 4 -1.</_>
                <_>
                  3 5 1 4 3.</_></rects>
              <tilted>0</tilted></feature>
            <threshold>-5.1246117800474167e-004</threshold>
            <left_val>0.5073198080062866</left_val>
            <right_val>-0.7291836738586426</right_val></_></_>
        <_>
          <_>
            <feature>
              <rects>
                <_>
                  11 0 2 18 -1.</_>
                <_>
                  11 0 1 18 2.</_></rects>
              <tilted>0</tilted></feature>
            <threshold>0.0107750901952386</threshold>
            <left_val>0.1085238978266716</left_val>
            <right_val>-0.5942165851593018</right_val></_></_>
        <_>
          <_>
            <feature>
              <rects>
                <_>
                  7 0 2 18 -1.</_>
                <_>
                  8 0 1 18 2.</_></rects>
              <tilted>0</tilted></feature>
            <threshold>2.7629081159830093e-003</threshold>
            <left_val>0.6478149294853210</left_val>
            <right_val>-0.5952504873275757</right_val></_></_></trees>
      <stage_threshold>0.0205932296812534</stage_threshold>
      <parent>9</parent>
      <next>-1</next></_>
    <_>
      <trees>
        <_>
          <_>
            <feature>
              <rects>
                <_>
                  2 3 3 8 -1.</_>
                <_>
                  3 3 1 8 3.</_></rects>
              <tilted>0</tilted></feature>
            <threshold>-4.2792339809238911e-003</threshold>
            <left_val>-1.</left_val>
            <right_val>0.3454535901546478</right_val></_></_></trees>
      <stage_threshold>0.3454535901546478</stage_threshold>
      <parent>10</parent>
      <next>-1</next></_>
    <_>
      <trees>
        <_>
          <_>
            <feature>
              <rects>
                <_>
                  2 2 4 1 -1.</_>
                <_>
                  3 2 2 1 2.</_></rects>
              <tilted>0</tilted></feature>
            <threshold>8.3578628255054355e-004</threshold>
            <left_val>-0.5669342279434204</left_val>
            <right_val>0.5975319743156433</right_val></_></_>
        <_>
          <_>
            <feature>
              <rects>
                <_>
                  15 5 2 8 -1.</_>
                <_>
                  16 5 1 4 2.</_>
                <_>
                  15 9 1 4 2.</_></rects>
              <tilted>0</tilted></feature>
            <threshold>-3.7494520656764507e-003</threshold>
            <left_val>0.4092758893966675</left_val>
            <right_val>-0.1761848032474518</right_val></_></_>
        <_>
          <_>
            <feature>
              <rects>
                <_>
                  3 5 2 8 -1.</_>
                <_>
                  3 5 1 4 2.</_>
                <_>
                  4 9 1 4 2.</_></rects>
              <tilted>0</tilted></feature>
            <threshold>-8.9557247702032328e-004</threshold>
            <left_val>0.4594222903251648</left_val>
            <right_val>-0.6569588780403137</right_val></_></_></trees>
      <stage_threshold>-0.2836967110633850</stage_threshold>
      <parent>11</parent>
      <next>-1</next></_>
    <_>
      <trees>
        <_>
          <_>
            <feature>
              <rects>
                <_>
                  0 4 19 4 -1.</_>
                <_>
                  0 6 19 2 2.</_></rects>
              <tilted>0</tilted></feature>
            <threshold>0.0302993301302195</threshold>
            <left_val>0.3097341954708099</left_val>
            <right_val>-0.9999963045120239</right_val></_></_>
        <_>
          <_>
            <feature>
              <rects>
                <_>
                  19 16 1 3 -1.</_>
                <_>
                  19 17 1 1 3.</_></rects>
              <tilted>0</tilted></feature>
            <threshold>-4.7914060996845365e-004</threshold>
            <left_val>-0.6117871999740601</left_val>
            <right_val>0.0814190804958344</right_val></_></_>
        <_>
          <_>
            <feature>
              <rects>
                <_>
                  0 16 1 3 -1.</_>
                <_>
                  0 17 1 1 3.</_></rects>
              <tilted>0</tilted></feature>
            <threshold>-4.9361278070136905e-004</threshold>
            <left_val>0.4629425108432770</left_val>
            <right_val>-0.6416195034980774</right_val></_></_></trees>
      <stage_threshold>-0.2504661977291107</stage_threshold>
      <parent>12</parent>
      <next>-1</next></_>
    <_>
      <trees>
        <_>
          <_>
            <feature>
              <rects>
                <_>
                  1 7 5 8 -1.</_>
                <_>
                  1 9 5 4 2.</_></rects>
              <tilted>0</tilted></feature>
            <threshold>-5.8723147958517075e-003</threshold>
            <left_val>-1.</left_val>
            <right_val>0.2869558036327362</right_val></_></_>
        <_>
          <_>
            <feature>
              <rects>
                <_>
                  9 13 4 1 -1.</_>
                <_>
                  10 13 2 1 2.</_></rects>
              <tilted>0</tilted></feature>
            <threshold>2.9207859188318253e-003</threshold>
            <left_val>-0.2362449020147324</left_val>
            <right_val>0.7869483828544617</right_val></_></_>
        <_>
          <_>
            <feature>
              <rects>
                <_>
                  4 11 4 8 -1.</_>
                <_>
                  4 13 4 4 2.</_></rects>
              <tilted>0</tilted></feature>
            <threshold>2.7200800832360983e-003</threshold>
            <left_val>-0.9039850234985352</left_val>
            <right_val>0.3453831076622009</right_val></_></_></trees>
      <stage_threshold>0.1699192970991135</stage_threshold>
      <parent>13</parent>
      <next>-1</next></_>
    <_>
      <trees>
        <_>
          <_>
            <feature>
              <rects>
                <_>
                  8 5 2 8 -1.</_>
                <_>
                  8 5 1 8 2.</_></rects>
              <tilted>1</tilted></feature>
            <threshold>-2.9333340935409069e-003</threshold>
            <left_val>0.5756651163101196</left_val>
            <right_val>-0.5611550807952881</right_val></_></_>
        <_>
          <_>
            <feature>
              <rects>
                <_>
                  9 8 3 1 -1.</_>
                <_>
                  10 8 1 1 3.</_></rects>
              <tilted>0</tilted></feature>
            <threshold>4.7245100140571594e-003</threshold>
            <left_val>-0.1026915982365608</left_val>
            <right_val>0.9529036283493042</right_val></_></_>
        <_>
          <_>
            <feature>
              <rects>
                <_>
                  8 8 3 1 -1.</_>
                <_>
                  9 8 1 1 3.</_></rects>
              <tilted>0</tilted></feature>
            <threshold>-1.9683740101754665e-003</threshold>
            <left_val>0.8488690853118897</left_val>
            <right_val>-0.3690645098686218</right_val></_></_>
        <_>
          <_>
            <feature>
              <rects>
                <_>
                  13 13 6 1 -1.</_>
                <_>
                  13 13 3 1 2.</_></rects>
              <tilted>1</tilted></feature>
            <threshold>-7.5138108804821968e-003</threshold>
            <left_val>-0.3963798880577087</left_val>
            <right_val>0.2002466022968292</right_val></_></_>
        <_>
          <_>
            <feature>
              <rects>
                <_>
                  7 13 1 6 -1.</_>
                <_>
                  7 13 1 3 2.</_></rects>
              <tilted>1</tilted></feature>
            <threshold>2.8146400582045317e-003</threshold>
            <left_val>0.5774236917495728</left_val>
            <right_val>-0.7632083892822266</right_val></_></_></trees>
      <stage_threshold>-0.2552407085895538</stage_threshold>
      <parent>14</parent>
      <next>-1</next></_>
    <_>
      <trees>
        <_>
          <_>
            <feature>
              <rects>
                <_>
                  5 0 3 7 -1.</_>
                <_>
                  6 0 1 7 3.</_></rects>
              <tilted>0</tilted></feature>
            <threshold>-3.4477149602025747e-003</threshold>
            <left_val>-1.</left_val>
            <right_val>0.2869557142257690</right_val></_></_>
        <_>
          <_>
            <feature>
              <rects>
                <_>
                  14 13 2 4 -1.</_>
                <_>
                  15 13 1 2 2.</_>
                <_>
                  14 15 1 2 2.</_></rects>
              <tilted>0</tilted></feature>
            <threshold>-1.5136559959501028e-003</threshold>
            <left_val>-0.5922986268997192</left_val>
            <right_val>0.0728413090109825</right_val></_></_>
        <_>
          <_>
            <feature>
              <rects>
                <_>
                  4 13 2 4 -1.</_>
                <_>
                  4 13 1 2 2.</_>
                <_>
                  5 15 1 2 2.</_></rects>
              <tilted>0</tilted></feature>
            <threshold>2.4362900294363499e-003</threshold>
            <left_val>-0.3930710852146149</left_val>
            <right_val>0.7949740290641785</right_val></_></_></trees>
      <stage_threshold>-0.0332739911973476</stage_threshold>
      <parent>15</parent>
      <next>-1</next></_>
    <_>
      <trees>
        <_>
          <_>
            <feature>
              <rects>
                <_>
                  6 3 3 2 -1.</_>
                <_>
                  7 4 1 2 3.</_></rects>
              <tilted>1</tilted></feature>
            <threshold>-4.1892929584719241e-004</threshold>
            <left_val>0.4028433859348297</left_val>
            <right_val>-0.6967188119888306</right_val></_></_>
        <_>
          <_>
            <feature>
              <rects>
                <_>
                  7 2 8 1 -1.</_>
                <_>
                  9 2 4 1 2.</_></rects>
              <tilted>0</tilted></feature>
            <threshold>-3.8088939618319273e-003</threshold>
            <left_val>0.2406599968671799</left_val>
            <right_val>-0.1432680934667587</right_val></_></_>
        <_>
          <_>
            <feature>
              <rects>
                <_>
                  10 3 6 3 -1.</_>
                <_>
                  9 4 6 1 3.</_></rects>
              <tilted>1</tilted></feature>
            <threshold>-1.9604919943958521e-003</threshold>
            <left_val>0.5662636160850525</left_val>
            <right_val>-0.6037240028381348</right_val></_></_>
        <_>
          <_>
            <feature>
              <rects>
                <_>
                  7 2 8 1 -1.</_>
                <_>
                  9 2 4 1 2.</_></rects>
              <tilted>0</tilted></feature>
            <threshold>-0.0154498601332307</threshold>
            <left_val>0.4560444951057434</left_val>
            <right_val>-0.0713901817798615</right_val></_></_>
        <_>
          <_>
            <feature>
              <rects>
                <_>
                  5 2 8 1 -1.</_>
                <_>
                  7 2 4 1 2.</_></rects>
              <tilted>0</tilted></feature>
            <threshold>4.3246531276963651e-004</threshold>
            <left_val>-0.6947873234748840</left_val>
            <right_val>0.5447263717651367</right_val></_></_></trees>
      <stage_threshold>0.0596615113317966</stage_threshold>
      <parent>16</parent>
      <next>-1</next></_>
    <_>
      <trees>
        <_>
          <_>
            <feature>
              <rects>
                <_>
                  0 10 2 8 -1.</_>
                <_>
                  0 10 1 4 2.</_>
                <_>
                  1 14 1 4 2.</_></rects>
              <tilted>0</tilted></feature>
            <threshold>-7.6881208224222064e-004</threshold>
            <left_val>-0.7999997138977051</left_val>
            <right_val>0.3076916038990021</right_val></_></_>
        <_>
          <_>
            <feature>
              <rects>
                <_>
                  15 0 4 8 -1.</_>
                <_>
                  15 0 4 4 2.</_></rects>
              <tilted>1</tilted></feature>
            <threshold>0.0439202003180981</threshold>
            <left_val>0.0585416294634342</left_val>
            <right_val>-0.9999955892562866</right_val></_></_>
        <_>
          <_>
            <feature>
              <rects>
                <_>
                  0 11 20 2 -1.</_>
                <_>
                  0 12 20 1 2.</_></rects>
              <tilted>0</tilted></feature>
            <threshold>-6.8765920586884022e-003</threshold>
            <left_val>-1.</left_val>
            <right_val>0.2163154035806656</right_val></_></_>
        <_>
          <_>
            <feature>
              <rects>
                <_>
                  4 9 12 4 -1.</_>
                <_>
                  4 10 12 2 2.</_></rects>
              <tilted>0</tilted></feature>
            <threshold>-2.3277630098164082e-003</threshold>
            <left_val>-0.8436681032180786</left_val>
            <right_val>0.2631382942199707</right_val></_></_></trees>
      <stage_threshold>-0.2620044052600861</stage_threshold>
      <parent>17</parent>
      <next>-1</next></_></stages></miccal-cascades-19stages>
</opencv_storage>
