<?xml version="1.0"?>
<opencv_storage>
<penset-detector-15stages type_id="opencv-haar-classifier">
  <size>50 50</size>
  <stages>
    <_>
      <trees>
        <_>
          <_>
            <feature>
              <rects>
                <_>
                  1 6 20 8 -1.</_>
                <_>
                  1 10 20 4 2.</_></rects>
              <tilted>0</tilted></feature>
            <threshold>0.0686232075095177</threshold>
            <left_val>-0.9684209823608398</left_val>
            <right_val>0.8761907219886780</right_val></_></_>
        <_>
          <_>
            <feature>
              <rects>
                <_>
                  14 1 8 5 -1.</_>
                <_>
                  16 3 4 5 2.</_></rects>
              <tilted>1</tilted></feature>
            <threshold>-3.0468329787254333e-003</threshold>
            <left_val>0.2852854132652283</left_val>
            <right_val>-0.8581401109695435</right_val></_></_></trees>
      <stage_threshold>-0.6831356287002564</stage_threshold>
      <parent>-1</parent>
      <next>-1</next></_>
    <_>
      <trees>
        <_>
          <_>
            <feature>
              <rects>
                <_>
                  0 0 3 24 -1.</_>
                <_>
                  0 6 3 12 2.</_></rects>
              <tilted>0</tilted></feature>
            <threshold>-1.8562780460342765e-003</threshold>
            <left_val>-1.</left_val>
            <right_val>0.9999998211860657</right_val></_></_></trees>
      <stage_threshold>0.9999998211860657</stage_threshold>
      <parent>0</parent>
      <next>-1</next></_>
    <_>
      <trees>
        <_>
          <_>
            <feature>
              <rects>
                <_>
                  0 40 4 4 -1.</_>
                <_>
                  0 40 2 2 2.</_>
                <_>
                  2 42 2 2 2.</_></rects>
              <tilted>0</tilted></feature>
            <threshold>-6.2119669746607542e-004</threshold>
            <left_val>-1.</left_val>
            <right_val>0.9999998211860657</right_val></_></_></trees>
      <stage_threshold>0.9999998211860657</stage_threshold>
      <parent>1</parent>
      <next>-1</next></_>
    <_>
      <trees>
        <_>
          <_>
            <feature>
              <rects>
                <_>
                  0 0 33 3 -1.</_>
                <_>
                  11 1 11 1 9.</_></rects>
              <tilted>0</tilted></feature>
            <threshold>6.8056997843086720e-003</threshold>
            <left_val>1.</left_val>
            <right_val>-0.9999998211860657</right_val></_></_></trees>
      <stage_threshold>1.</stage_threshold>
      <parent>2</parent>
      <next>-1</next></_>
    <_>
      <trees>
        <_>
          <_>
            <feature>
              <rects>
                <_>
                  0 3 40 20 -1.</_>
                <_>
                  10 3 20 20 2.</_></rects>
              <tilted>0</tilted></feature>
            <threshold>8.5276123136281967e-003</threshold>
            <left_val>-1.</left_val>
            <right_val>0.9999998211860657</right_val></_></_></trees>
      <stage_threshold>0.9999998211860657</stage_threshold>
      <parent>3</parent>
      <next>-1</next></_>
    <_>
      <trees>
        <_>
          <_>
            <feature>
              <rects>
                <_>
                  13 0 5 3 -1.</_>
                <_>
                  13 1 5 1 3.</_></rects>
              <tilted>0</tilted></feature>
            <threshold>-9.2497626610565931e-005</threshold>
            <left_val>-1.</left_val>
            <right_val>0.9999995231628418</right_val></_></_></trees>
      <stage_threshold>0.9999995231628418</stage_threshold>
      <parent>4</parent>
      <next>-1</next></_>
    <_>
      <trees>
        <_>
          <_>
            <feature>
              <rects>
                <_>
                  0 1 44 32 -1.</_>
                <_>
                  11 1 22 32 2.</_></rects>
              <tilted>0</tilted></feature>
            <threshold>0.0454912893474102</threshold>
            <left_val>-1.</left_val>
            <right_val>0.9999998211860657</right_val></_></_></trees>
      <stage_threshold>0.9999998211860657</stage_threshold>
      <parent>5</parent>
      <next>-1</next></_>
    <_>
      <trees>
        <_>
          <_>
            <feature>
              <rects>
                <_>
                  2 16 24 4 -1.</_>
                <_>
                  2 16 12 2 2.</_>
                <_>
                  14 18 12 2 2.</_></rects>
              <tilted>0</tilted></feature>
            <threshold>-3.9392309263348579e-003</threshold>
            <left_val>-1.</left_val>
            <right_val>0.9999998211860657</right_val></_></_></trees>
      <stage_threshold>0.9999998211860657</stage_threshold>
      <parent>6</parent>
      <next>-1</next></_>
    <_>
      <trees>
        <_>
          <_>
            <feature>
              <rects>
                <_>
                  4 40 4 4 -1.</_>
                <_>
                  4 40 2 2 2.</_>
                <_>
                  6 42 2 2 2.</_></rects>
              <tilted>0</tilted></feature>
            <threshold>-5.9989572037011385e-004</threshold>
            <left_val>-1.</left_val>
            <right_val>0.9999998211860657</right_val></_></_></trees>
      <stage_threshold>0.9999998211860657</stage_threshold>
      <parent>7</parent>
      <next>-1</next></_>
    <_>
      <trees>
        <_>
          <_>
            <feature>
              <rects>
                <_>
                  7 32 10 2 -1.</_>
                <_>
                  7 32 5 1 2.</_>
                <_>
                  12 33 5 1 2.</_></rects>
              <tilted>0</tilted></feature>
            <threshold>4.4229719787836075e-004</threshold>
            <left_val>1.</left_val>
            <right_val>-0.9999995231628418</right_val></_></_></trees>
      <stage_threshold>1.</stage_threshold>
      <parent>8</parent>
      <next>-1</next></_>
    <_>
      <trees>
        <_>
          <_>
            <feature>
              <rects>
                <_>
                  17 43 1 4 -1.</_>
                <_>
                  17 45 1 2 2.</_></rects>
              <tilted>0</tilted></feature>
            <threshold>-2.2124069801066071e-005</threshold>
            <left_val>1.</left_val>
            <right_val>-0.9999997019767761</right_val></_></_></trees>
      <stage_threshold>1.</stage_threshold>
      <parent>9</parent>
      <next>-1</next></_>
    <_>
      <trees>
        <_>
          <_>
            <feature>
              <rects>
                <_>
                  12 24 9 1 -1.</_>
                <_>
                  15 27 3 1 3.</_></rects>
              <tilted>1</tilted></feature>
            <threshold>4.6299278619699180e-004</threshold>
            <left_val>-1.</left_val>
            <right_val>0.9999998211860657</right_val></_></_></trees>
      <stage_threshold>0.9999998211860657</stage_threshold>
      <parent>10</parent>
      <next>-1</next></_>
    <_>
      <trees>
        <_>
          <_>
            <feature>
              <rects>
                <_>
                  20 41 1 4 -1.</_>
                <_>
                  19 42 1 2 2.</_></rects>
              <tilted>1</tilted></feature>
            <threshold>5.7814770843833685e-004</threshold>
            <left_val>1.</left_val>
            <right_val>-0.9999998211860657</right_val></_></_></trees>
      <stage_threshold>1.</stage_threshold>
      <parent>11</parent>
      <next>-1</next></_>
    <_>
      <trees>
        <_>
          <_>
            <feature>
              <rects>
                <_>
                  2 29 12 6 -1.</_>
                <_>
                  2 29 6 3 2.</_>
                <_>
                  8 32 6 3 2.</_></rects>
              <tilted>0</tilted></feature>
            <threshold>-1.2052849633619189e-003</threshold>
            <left_val>1.</left_val>
            <right_val>-0.8571426272392273</right_val></_></_>
        <_>
          <_>
            <feature>
              <rects>
                <_>
                  16 47 21 3 -1.</_>
                <_>
                  23 48 7 1 9.</_></rects>
              <tilted>0</tilted></feature>
            <threshold>3.3475039526820183e-003</threshold>
            <left_val>0.6085423827171326</left_val>
            <right_val>-0.5788663029670715</right_val></_></_></trees>
      <stage_threshold>-0.2486001998186112</stage_threshold>
      <parent>12</parent>
      <next>-1</next></_>
    <_>
      <trees>
        <_>
          <_>
            <feature>
              <rects>
                <_>
                  4 5 12 3 -1.</_>
                <_>
                  3 6 12 1 3.</_></rects>
              <tilted>1</tilted></feature>
            <threshold>7.7665863500442356e-005</threshold>
            <left_val>1.</left_val>
            <right_val>-0.8571426272392273</right_val></_></_>
        <_>
          <_>
            <feature>
              <rects>
                <_>
                  35 40 3 2 -1.</_>
                <_>
                  36 40 1 2 3.</_></rects>
              <tilted>0</tilted></feature>
            <threshold>3.6102021113038063e-004</threshold>
            <left_val>0.2413997054100037</left_val>
            <right_val>-0.9999998211860657</right_val></_></_>
        <_>
          <_>
            <feature>
              <rects>
                <_>
                  24 21 11 4 -1.</_>
                <_>
                  23 22 11 2 2.</_></rects>
              <tilted>1</tilted></feature>
            <threshold>8.9160481002181768e-004</threshold>
            <left_val>1.</left_val>
            <right_val>-1.</right_val></_></_></trees>
      <stage_threshold>0.3842571079730988</stage_threshold>
      <parent>13</parent>
      <next>-1</next></_></stages></penset-detector-15stages>
</opencv_storage>
